tree
version=v4
num_class=1
num_tree_per_iteration=1
label_index=0
max_feature_idx=99
objective=binary sigmoid:1
feature_names=Column_0 Column_1 Column_2 Column_3 Column_4 Column_5 Column_6 Column_7 Column_8 Column_9 Column_10 Column_11 Column_12 Column_13 Column_14 Column_15 Column_16 Column_17 Column_18 Column_19 Column_20 Column_21 Column_22 Column_23 Column_24 Column_25 Column_26 Column_27 Column_28 Column_29 Column_30 Column_31 Column_32 Column_33 Column_34 Column_35 Column_36 Column_37 Column_38 Column_39 Column_40 Column_41 Column_42 Column_43 Column_44 Column_45 Column_46 Column_47 Column_48 Column_49 Column_50 Column_51 Column_52 Column_53 Column_54 Column_55 Column_56 Column_57 Column_58 Column_59 Column_60 Column_61 Column_62 Column_63 Column_64 Column_65 Column_66 Column_67 Column_68 Column_69 Column_70 Column_71 Column_72 Column_73 Column_74 Column_75 Column_76 Column_77 Column_78 Column_79 Column_80 Column_81 Column_82 Column_83 Column_84 Column_85 Column_86 Column_87 Column_88 Column_89 Column_90 Column_91 Column_92 Column_93 Column_94 Column_95 Column_96 Column_97 Column_98 Column_99
<<<<<<< HEAD
feature_infos=[0.0030189999379217625:1.0982309579849243] [0.0014740000478923321:1.198415994644165] [0.0012880000285804272:1.2974590063095093] [0.0012540000025182962:1.3996529579162598] [0.0029619999695569277:1.4968019723892212] [0.002107999986037612:1.5991950035095215] [0.001243000035174191:1.6964219808578491] [0.0015439999988302588:1.7988970279693604] [0.0014039999805390835:1.8979660272598267] [0.0029800001066178083:1.9963510036468506] [0.0019789999350905418:1.0979180335998535] [0.0015360000543296337:1.1981439590454102] [0.0014590000500902534:1.2997750043869019] [0.0020200000144541264:1.398622989654541] [0.0028180000372231007:1.4996399879455566] [0.0018639999907463789:1.5983140468597412] [0.0004839999892283231:1.6982059478759766] [0.0019670000765472651:1.7978370189666748] [0.0029289999511092901:1.8996009826660156] [0.00065000000176951289:1.9980679750442505] [0.0027360001113265753:1.0968079566955566] [0.0010089999996125698:1.1989920139312744] [0.00077599997166544199:1.2992750406265259] [7.3000002885237336e-05:1.3981930017471313] [0.0016609999584034085:1.4964170455932617] [0.0019660000689327717:1.5987459421157837] [0.0016489999834448099:1.6993659734725952] [0.0036039999686181545:1.7976069450378418] [0.00075399997876957059:1.8987059593200684] [0.0025679999962449074:1.9957489967346191] [0.0014159999554976821:1.0987659692764282] [0.0010789999505504966:1.1982400417327881] [0.0012600000482052565:1.2989369630813599] [0.0028200000524520874:1.398779034614563] [0.0024480000138282776:1.4988360404968262] [0.0034060000907629728:1.5954780578613281] [0.0025939999613910913:1.6988240480422974] [0.0036909999325871468:1.7996840476989746] [0.0026799999177455902:1.8982349634170532] [0.0024379999376833439:1.9967249631881714] [0.0016400000313296914:1.0976790189743042] [0.0022789998911321163:1.1967370510101318] [0.00063199998112395406:1.2993170022964478] [0.0019940000493079424:1.3995679616928101] [0.0014469999587163329:1.4982130527496338] [0.0024200000334531069:1.5988980531692505] [0.0023550000041723251:1.698809027671814] [0.0015829999465495348:1.7975250482559204] [0.0037320000119507313:1.8989510536193848] [0.0036120000295341015:1.9971410036087036] [0.0026670000515878201:1.0996030569076538] [0.0014140000566840172:1.1980359554290771] [0.0011609999928623438:1.2972919940948486] [0.0026779999025166035:1.3987300395965576] [0.001973999897018075:1.4967689514160156] [0.0026809999253600836:1.5974999666213989] [0.0030700000934302807:1.6983519792556763] [0.0010019999463111162:1.7977050542831421] [0.0030950000509619713:1.8992090225219727] [0.0018380000256001949:1.9991660118103027] [0.00077099999180063605:1.0981290340423584] [0.00052699999650940299:1.1983920335769653] [0.0021750000305473804:1.2981469631195068] [0.00095199997304007411:1.3981989622116089] [0.0011500000255182385:1.4973080158233643] [0.00022499999613501132:1.5992430448532104] [0.0029490001033991575:1.69890296459198] [0.00082499999552965164:1.796205997467041] [0.0035810000263154507:1.8987400531768799] [0.0017630000365898013:1.9997129440307617] [0.0016400000313296914:1.0994399785995483] [0.0018029999919235706:1.1978919506072998] [0.002082000020891428:1.297711968421936] [0.00080999999772757292:1.3989390134811401] [0.0010799999581649899:1.4971790313720703] [0.0020550000481307507:1.5972110033035278] [0.0015099999727681279:1.6981149911880493] [0.0006750000175088644:1.7980879545211792] [0.00040300001273863018:1.8965380191802979] [0.0042260000482201576:1.9981800317764282] [0.0012339999666437507:1.0987670421600342] [0.00091100001009181142:1.1972090005874634] [0.0022509999107569456:1.2990150451660156] [0.00056900002527981997:1.3987139463424683] [0.0016380000161007047:1.4966189861297607] [0.0040640002116560936:1.5971970558166504] [0.0027079998981207609:1.6979819536209106] [0.0028339999262243509:1.7971169948577881] [0.00039999998989515007:1.8959250450134277] [0.001715000020340085:1.9960410594940186] [0.00073099997825920582:1.0968680381774902] [8.1999998656101525e-05:1.1976150274276733] [0.00060700002359226346:1.2998670339584351] [0.001095999963581562:1.3978090286254883] [0.0017040000529959798:1.4979790449142456] [0.001003999961540103:1.5985159873962402] [0.0035949999000877142:1.6989879608154297] [0.0020880000665783882:1.7965550422668457] [0.0018029999919235706:1.898872971534729] [0.0044590001925826073:1.9986410140991211]
<<<<<<< HEAD
tree_sizes=3297 3393 3394 3405 3398 3410 3429 3441 3421 3411 3430 3418 3425 3431 3424 3419 3423 3388 3416 3426 3419 3406 3448 3404 3430 3412 3437 3439 3451 3418 3432 3430 3437 3437 3423 3418 3418 3432 3433 3435 3442 3419 3426 3429 3425 3431 3435 3424 3426 3429 3421 3429 3424 3452 3428 3450 3422 3419 3427 3442 3435 3437 3434 3433 3436 3445 3425 3432 3437 3425 3424 3430 3427 3437 3423 3430 3421 3432 3425 3446 3434 3414 3428 3426 3438 3433 3439 3458 3435 3443 3431 3438 3418 3446 3423 3442 3442 3451 3433 3453 3431 3424 3465 3436 3456 3434 3428 3432 3410 3462 3450 3427 3442 3440 3448 3443 3463 3448 3442 3445 3447 3434 3411 3440 3441 3437 3443 3455 3443 3440 3431 3447 3436 3451 3442 3456 3459 3440 3435 3436 3456 3448 3420 3437 3449 3449 3443 3465 3430 3470 3430 3451 3428 3467 3435 3438 3440 3441 3454 3441 3474 3456 3438 3463 3435 3470 3457 3462 3440 3451 3443 3431 3430 3448 3460 3449 3464 3494 3478 3439 3454 3453 3444 3462 3448 3461 3463 3437 3468 3450 3479 3447 3444 3455 3489 3471 3475 3460 3487 3485 3453 3479 3467 3447 3485 3464 3436 3450 3465 3461 3462 3456 3455 3454 3444 3450 3476 3463 3453 3466 3455 3456 3498 3470 3466 3503 3491 3458 3476 3468 3479 3480 3491 3500 3468 3464 3453 3500 3466 3463 3465 3482 3482 3476 3480 3491 3498 3472 3504 3482 3494 3474 3462 3476 3462 3454 3472 3493 3515 3484 3500 3507 3472 3463 3455 3471 3462 3496 3493 3485 3459 3491 3513 3492 3483 3491 3474 3488 3492 3508 3472 3490 3504 3470 3500 3471 3494 3488 3468 3500 3505 3509 3489 3486 3478 3476 3495 3498 3492 3491 3487 3503 3480 3505 3488 3483 3493 3477 3484 3507 3482 3469 3472 3513 3481 3491 3482 3492 3514 3496 3498 3504 3472 3500 3488 3504 3489 3503 3490 3480 3478 3498 3480 3491 3493 3488 3514 3503 3512 3482 3501 3479 3474 3516 3494 3482 3494 3501 3476 3520 3484 3493 3493 3490 3501 3513 3500 3496 3493 3507 3499 3517 3499 3514 3501 3501 3512 3493 3522 3499 3491 3496 3516 3532 3501 3482 3500 3511 3503 3505 3525 3504 3509 3514 3511 3487 3489 3487 3514 3514 3524 3516 3491 3491 3494 3508 3513 3507 3486 3526 3492 3491 3521 3497 3526 3506 3497 3514 3532 3505 3528 3524 3503 3500 3530 3503 3486 3494 3526 3527 3511 3517 3498 3520 3521 3535 3503 3515 3509 3501 3515 3496 3516 3513 3509 3508 3509 3510 3519 3511 3512 3507 3513 3500 3515 3537 3517 3501 3536 3558 3523 3516 3512 3515 3508 3532 3547 3544 3516 3518 3517 3538 3529 3557 3540 3516 3523 3544 3504 3502 3510 3526 3550 3530 3500 3528 3517 3498 3534 3510 3502 3515 3511 3515 3545 3523 3545 3535 3529 3538 3534 3542 3529 3526 3541 3554 3527 3526 3533 3537
=======
tree_sizes=3297 3393 3394 3405 3398 3410 3429 3441 3421 3411 3430 3418 3425 3431 3424 3419 3423 3388 3416 3426 3419 3406 3448 3404 3430 3412 3437 3439 3451 3418 3432 3430 3437 3437 3423 3418 3418 3432 3433 3435 3442 3419 3426 3429 3425 3431 3435 3424 3426 3429 3421 3429 3424 3452 3428 3450 3422 3419 3427 3442 3435 3437 3434 3433 3436 3445 3425 3432 3437 3425 3424 3430 3427 3437 3423 3430 3421 3432 3425 3446 3434 3414 3428 3426 3438 3433 3439 3458 3435 3443 3431 3438 3418 3446 3423 3442 3442 3451 3433 3453 3431 3424 3465 3436 3456 3434 3428 3432 3410 3462 3450 3427 3442 3440 3448 3443 3463 3448 3442 3445 3447 3434 3411 3440 3441 3437 3443 3455 3443 3440 3431 3447 3436 3451 3442 3456 3459 3440 3435 3436 3456 3448 3420 3437 3449 3449 3443 3465 3430 3470 3430 3451 3428 3467 3435 3438 3440 3441 3454 3441 3474 3456 3438 3463 3435 3470 3457 3462 3440 3451 3443 3431 3430 3449 3460 3449 3464 3494 3480 3439 3454 3453 3443 3462 3448 3461 3463 3437 3467 3450 3479 3447 3444 3455 3489 3471 3475 3460 3487 3486 3453 3479 3468 3447 3485 3464 3436 3451 3465 3461 3462 3456 3455 3454 3444 3450 3476 3462 3453 3466 3456 3456 3498 3470 3466 3504 3492 3458 3476 3468 3479 3480 3487 3498 3468 3464 3452 3500 3466 3463 3465 3482 3482 3476 3480 3491 3497 3472 3504 3482 3494 3474 3462 3476 3462 3454 3472 3493 3515 3484 3500 3507 3472 3463 3455 3471 3462 3496 3493 3485 3459 3491 3513 3492 3483 3491 3476 3488 3492 3508 3472 3490 3504 3470 3500 3471 3494 3488 3468 3500 3504 3509 3489 3486 3478 3475 3495 3498 3492 3491 3487 3503 3480 3505 3488 3483 3493 3477 3484 3507 3484 3469 3472 3513 3481 3491 3482 3492 3514 3496 3498 3505 3471 3501 3489 3504 3489 3504 3490 3480 3478 3498 3480 3491 3493 3489 3514 3503 3512 3482 3501 3479 3474 3516 3494 3484 3492 3501 3476 3520 3484 3493 3493 3490 3501 3513 3500 3496 3493 3506 3500 3517 3500 3514 3501 3501 3512 3494 3522 3499 3491 3496 3516 3532 3501 3482 3500 3511 3503 3505 3525 3503 3510 3514 3511 3487 3489 3487 3514 3514 3525 3516 3491 3491 3494 3508 3513 3507 3486 3526 3492 3491 3521 3497 3526 3506 3497 3514 3532 3505 3528 3524 3503 3500 3530 3502 3486 3494 3527 3527 3511 3517 3498 3520 3521 3535 3503 3515 3509 3501 3515 3496 3516 3513 3509 3508 3509 3510 3519 3510 3512 3507 3514 3500 3515 3537 3518 3501 3535 3558 3523 3516 3512 3515 3508 3533 3549 3544 3516 3518 3517 3538 3529 3557 3539 3516 3523 3544 3504 3502 3510 3526 3550 3531 3500 3528 3517 3498 3534 3510 3500 3515 3511 3515 3545 3523 3544 3535 3528 3538 3533 3541 3529 3526 3541 3555 3527 3525 3534 3537
=======
feature_infos=[0.00047100000665523112:1.099107027053833] [0.0015310000162571669:1.1989849805831909] [0.00056100002257153392:1.2987630367279053] [0.0016309999627992511:1.3995859622955322] [0.0018649999983608723:1.4984019994735718] [0.0010089999996125698:1.5988509654998779] [0.0020800000056624413:1.6995179653167725] [0.00098600005730986595:1.7982100248336792] [0.0008580000139772892:1.8982210159301758] [0.0010199999669566751:1.9992079734802246] [0.0010369999799877405:1.0997159481048584] [0.00086999998893588781:1.1990779638290405] [0.001547000021673739:1.2988040447235107] [0.00033999999868683517:1.3991450071334839] [0.0015930000226944685:1.498695969581604] [0.0011050000321120024:1.5993219614028931] [0.00086500000907108188:1.6992709636688232] [0.0018700000364333391:1.7977789640426636] [0.0012860000133514404:1.8982410430908203] [0.00090699997963383794:1.9992129802703857] [0.001003999961540103:1.0983799695968628] [0.0006120000034570694:1.1987940073013306] [0.0010219999821856618:1.2995699644088745] [0.00056100002257153392:1.3990249633789062] [0.00088399997912347317:1.4990010261535645] [0.0014059999957680702:1.5984100103378296] [0.00017299999308306724:1.6996309757232666] [0.0011139999842271209:1.7992099523544312] [0.00020700000459328294:1.899338960647583] [0.0017259999876841903:1.9989960193634033] [0.00045600000885315239:1.0994249582290649] [0.00096500001382082701:1.1988849639892578] [0.0015869999770075083:1.2992949485778809] [0.00080600002547726035:1.3985689878463745] [0.0012610000558197498:1.4989839792251587] [0.0021760000381618738:1.5993289947509766] [0.0004889999981969595:1.6992629766464233] [0.00077699997927993536:1.7996599674224854] [0.00072700000600889325:1.8986949920654297] [0.0014870000304654241:1.9992270469665527] [0.00018800000543706119:1.0993260145187378] [0.0015679999487474561:1.1993139982223511] [0.0011559999547898769:1.2997119426727295] [0.00048700001207180321:1.3990869522094727] [0.0013220000546425581:1.4977229833602905] [0.00024300000222865492:1.5985620021820068] [0.0008009999874047935:1.6993700265884399] [0.00075200002174824476:1.7994790077209473] [0.0010349999647587538:1.8996469974517822] [0.00079100002767518163:1.9985589981079102] [0.00063800002681091428:1.0988739728927612] [0.00073899998096749187:1.1983879804611206] [0.00084699998842552304:1.2987020015716553] [0.00014299999747890979:1.3989499807357788] [0.00095399998826906085:1.4989629983901978] [0.00084200000856071711:1.599323034286499] [0.0013010000111535192:1.698747992515564] [0.0019650000613182783:1.7994329929351807] [0.0016830000095069408:1.8987749814987183] [0.0017209999496117234:1.9984519481658936] [0.0002680000034160912:1.0979670286178589] [0.00060000002849847078:1.1982680559158325] [0.0021220000926405191:1.2997030019760132] [0.00070899998536333442:1.3988610506057739] [0.00051599997095763683:1.4994089603424072] [0.00093099998775869608:1.5993900299072266] [0.0010250000050291419:1.6991020441055298] [0.00062200002139434218:1.7987070083618164] [0.0012460000580176711:1.8994760513305664] [0.00058799999533221126:1.998818039894104] [0.0020659998990595341:1.099202036857605] [0.0020129999611526728:1.1985340118408203] [0.0025269999168813229:1.2977210283279419] [0.000590000010561198:1.3991299867630005] [0.000295000005280599:1.499053955078125] [0.00093400001060217619:1.5988340377807617] [0.0010659999679774046:1.6988309621810913] [0.00012700000661425292:1.799159049987793] [0.00055400002747774124:1.8996709585189819] [0.0019089999841526151:1.9991559982299805] [0.00070099998265504837:1.099079966545105] [0.00084300001617521048:1.199552059173584] [0.00047400000039488077:1.2996120452880859] [0.00085700000636279583:1.3990570306777954] [0.00028700000257231295:1.4990730285644531] [0.00095499999588355422:1.5988739728927612] [0.0023870000150054693:1.6988110542297363] [0.00065000000176951289:1.7988879680633545] [0.0011370000429451466:1.898434042930603] [0.0016329999780282378:1.998136043548584] [0.0005389999714680016:1.0992419719696045] [0.00050000002374872565:1.1994580030441284] [0.00028300000121816993:1.2989619970321655] [0.0012069999938830733:1.3987610340118408] [0.00081499997759237885:1.4994239807128906] [0.00078200001735240221:1.5975910425186157] [0.0015960000455379486:1.6987969875335693] [0.00079000002006068826:1.7995369434356689] [0.001171999960206449:1.8992719650268555] [0.0010349999647587538:1.9981600046157837]
tree_sizes=3338 3444 3432 3444 3432 3445 3436 3451 3460 3443 3442 3443 3449 3442 3438 3453 3436 3428 3450 3441 3475 3427 3437 3450 3443 3461 3460 3446 3486 3448 3488 3442 3446 3426 3439 3465 3446 3462 3450 3455 3437 3440 3470 3462 3463 3448 3432 3480 3438 3480 3434 3445 3414 3433 3442 3467 3434 3437 3439 3461 3437 3441 3458 3438 3453 3456 3452 3442 3427 3447 3435 3477 3442 3460 3445 3445 3438 3445 3415 3422 3453 3439 3450 3456 3451 3452 3460 3419 3456 3461 3441 3452 3436 3446 3437 3445 3441 3408 3471 3436 3431 3444 3452 3454 3450 3451 3435 3427 3448 3447 3463 3406 3448 3454 3427 3436 3445 3457 3451 3457 3440 3437 3422 3456 3438 3414 3440 3450 3449 3434 3447 3438 3444 3419 3432 3461 3466 3453 3442 3449 3438 3453 3438 3451 3436 3440 3452 3436 3450 3447 3463 3451 3460 3434 3430 3441 3448 3436 3448 3443 3454 3452 3434 3422 3449 3438 3431 3466 3442 3440 3442 3456 3456 3437 3447 3445 3440 3437 3449 3453 3433 3442 3462 3441 3433 3456 3461 3443 3444 3467 3446 3467 3471 3459 3451 3430 3429 3450 3424 3437 3435 3423 3438 3440 3440 3433 3435 3447 3459 3445 3462 3463 3466 3434 3448 3437 3442 3464 3462 3427 3454 3448 3460 3439 3448 3434 3443 3420 3459 3439 3446 3450 3444 3477 3453 3492 3452 3449 3447 3429 3435 3455 3458 3432 3459 3438 3432 3462 3443 3449 3444 3426 3440 3450 3434 3439 3469 3444 3446 3447 3447 3436 3442 3441 3444 3434 3457 3430 3446 3479 3441 3425 3427 3414 3472 3432 3438 3450 3452 3443 3439 3433 3448 3459 3441 3452 3454 3464 3440 3451 3432 3442 3442 3448 3464 3417 3455 3440 3441 3457 3444 3469 3471 3458 3446 3447 3459 3450 3430 3455 3457 3455 3426 3457 3429 3453 3446 3450 3450 3452 3458 3438 3441 3478 3455 3480 3434 3439 3455 3459 3469 3450 3461 3426 3449 3447 3438 3450 3446 3450 3466 3455 3442 3417 3447 3452 3451 3475 3442 3444 3430 3439 3462 3454 3437 3439 3461 3441 3459 3454 3444 3450 3455 3447 3441 3427 3471 3470 3472 3461 3464 3449 3458 3472 3462 3425 3483 3445 3441 3450 3459 3447 3437 3467 3461 3436 3453 3472 3469 3434 3457 3444 3430 3438 3444 3457 3436 3435 3435 3450 3454 3472 3460 3454 3461 3487 3445 3447 3447 3451 3463 3426 3462 3435 3445 3440 3452 3448 3457 3476 3435 3435 3442 3443 3440 3457 3439 3417 3424 3442 3454 3436 3452 3452 3450 3438 3472 3453 3450 3445 3432 3447 3467 3436 3450 3448 3452 3483 3433 3429 3447 3439 3469 3445 3437 3446 3436 3462 3433 3470 3444 3465 3458 3453 3451 3450 3464 3456 3458 3458 3444 3444 3435 3453 3454 3447 3447 3441 3440 3433 3441 3472 3428 3461 3505 3456 3450 3443 3441 3465 3459 3446 3441 3457 3461 3440 3450 3461 3440 3445
>>>>>>> 5dd2c62abcc99357697d23886080f074089f813f
>>>>>>> ee168571e320dce3eafc6655b284fad8ae780efb

Tree=0
num_leaves=31
num_cat=0
<<<<<<< HEAD
split_feature=19 59 38 9 26 81 10 45 37 67 13 38 74 39 1 64 19 0 54 63 83 66 76 83 97 33 4 30 90 64
split_gain=17090.1 1400.96 836.289 401.804 265.618 206.196 201.17 193.446 175.834 158.621 136.069 133.944 133.833 135.859 128.348 125.059 131.785 118.573 129.114 116.99 116.373 119.203 115.079 130.73 115.427 111.639 106.413 105.7 104.669 121.192
threshold=0.14786750078201297 0.11700600013136865 0.1707514971494675 0.10197399929165842 0.078142996877431883 0.059724500402808196 0.040965000167489059 0.11581899970769884 0.073831502348184599 0.13039650022983554 0.032280499115586288 0.099280498921871199 0.065296500921249404 0.05305100046098233 0.078699000179767623 0.094438001513481154 0.095212500542402281 0.079581998288631453 0.10419149696826936 0.090985998511314406 0.032354500144720084 0.035530500113964088 0.063522003591060652 0.089493501931428923 0.10311549901962282 0.10022300109267236 0.088985502719879164 0.078911498188972487 0.048643499612808234 0.046173999086022384
decision_type=2 2 2 2 2 2 2 2 2 2 2 2 2 2 2 2 2 2 2 2 2 2 2 2 2 2 2 2 2 2
left_child=1 3 7 6 22 9 12 -2 15 -6 28 17 13 -1 -14 16 26 18 19 -7 21 -12 -3 -24 -25 -9 -5 -17 29 -8
right_child=2 4 -4 8 5 11 10 25 -10 -11 20 -13 14 -15 -16 27 -18 -19 -20 -21 -22 -23 23 24 -26 -27 -28 -29 -30 -31
leaf_value=0.083323499492181874 2.9109085935486121 3.3464829921566155 4.0217164339322702 1.5284369891007117 1.6186576560313686 3.662131201030558 -0.64653179828988394 3.0581130235557241 2.6332089940245478 3.4406578692897849 0.038022136181587118 3.3205625997223929 1.2611589455680967 1.3484060156477944 2.5600455755723788 3.1665897574695716 2.3109687996792467 3.1859849568722041 0.76284394915136344 1.5847401120724744 2.093871845025395 1.745283153477895 2.434225827085009 1.9903647614389244 -0.0042591362416728451 3.7036830620861521 -0.24511138450976189 1.2828248149775248 1.7292730331110922 1.487665762121162
leaf_weight=1.4462531805038481 5.7469534277915981 0.5899190604686767 1132.4733292758465 0.76118588447570779 1.579460710287097 0.55185976624489119 0.51380047202110579 3.3111585974693325 9.343556731939314 0.6850672960281371 0.5518597662448913 14.062909215688704 2.2074390649795537 2.0552018880844116 1.1608084738254545 0.93245270848274209 0.8753637671470641 1.7887868285179136 0.55185976624488819 0.53283011913299561 14.709917217493055 1.5794607102870939 1.4462531805038454 0.58991906046867348 0.57088941335678101 14.024849921464918 0.60894870758056641 0.4376818835735321 1.6555792987346647 0.55185976624488831
leaf_count=76 302 31 59511 40 83 29 27 174 491 36 29 739 116 108 61 49 46 94 29 28 773 83 76 31 30 737 32 23 87 29
internal_value=3.92256 2.30978 4.00957 1.94795 2.93085 3.06771 1.72432 3.4137 2.40407 2.16985 1.8878 3.18398 1.25877 0.825872 1.7088 1.81193 1.35253 2.62322 2.0081 2.64166 1.99381 1.30322 2.08521 1.79982 1.0094 3.58038 0.740193 2.56483 1.2317 0.458678
internal_weight=1217.9 62.3411 1155.56 39.3914 22.9498 19.7528 26.4322 23.083 12.9592 2.26453 19.5625 17.4882 6.8697 3.50146 3.36825 3.61563 2.2455 3.42534 1.63655 1.08469 16.8412 2.13132 3.19698 2.60706 1.16081 17.336 1.37013 1.37013 2.72124 1.06566
internal_count=64000 3276 60724 2070 1206 1038 1389 1213 681 119 1028 919 361 184 177 190 118 180 86 57 885 112 168 137 61 911 72 72 143 56
=======
split_feature=19 18 9 17 49 8 17 19 15 87 19 18 9 58 14 1 16 15 3 27 95 90 17 12 20 47 45 16 54 6
split_gain=163806 10298.9 7749.1 3037.81 1699.45 1125.27 1058.14 1046.77 711.898 690.479 618.362 604.129 558.201 466.087 430.185 384.247 358.555 355.345 326.235 311.006 309.566 305.472 278.627 265.674 260.705 259.411 250.07 245.166 226.95 225
threshold=0.14847899973392489 0.12088049948215486 0.17012050002813342 0.10990750044584276 0.1242629997432232 0.12799250334501269 0.14373550564050677 0.117553498595953 0.12694250047206881 0.089778501540422453 0.12513950467109683 0.14193750172853473 0.07742099836468698 0.12779549509286883 0.1163654997944832 0.029459499754011634 0.035328499972820289 0.1209005005657673 0.10691500082612039 0.073447499424219145 0.097196999937295928 0.12131650000810625 0.11653850227594377 0.053199501708149917 0.097730502486228957 0.12929350137710574 0.097496997565031066 0.071611501276493086 0.087776500731706633 0.070626497268676772
decision_type=2 2 2 2 2 2 2 2 2 2 2 2 2 2 2 2 2 2 2 2 2 2 2 2 2 2 2 2 2 2
left_child=1 3 5 7 12 27 -4 9 13 16 19 -7 -3 18 -8 -14 -1 28 25 -6 -13 24 -12 -17 29 -5 -22 -2 -11 -18
right_child=2 4 6 8 10 11 14 -9 -10 17 22 20 15 -15 -16 23 21 -19 -20 -21 26 -23 -24 -25 -26 -27 -28 -29 -30 -31
leaf_value=1.4338839603720723 2.0812035965924403 1.9409402494728418 3.5751133273182596 2.0184077723007312 2.0264255123783803 3.2402135997099846 3.6201235349228624 2.3780986518697294 3.0274740795948913 1.8667415023850156 3.004969504427272 2.972567959227955 0.71816814132163032 2.823406528310394 4.0567844629078218 2.1726196367450656 1.6009259640795923 2.6158110856872234 2.6398716081350786 3.0095020457216943 3.0351901763920197 3.3900494069883855 3.5147054142669067 2.8082532598400141 2.1148672348558568 2.7090478777514289 3.7780184450498351 3.0476946923094266 2.2104422524652971 1.8735827491419781
leaf_weight=32.963232865557075 2.7822516281157723 11.147432019934056 45.971641140058637 37.016844509169459 3.4455698970705262 43.04198545217514 22.608097666874528 43.097261974588037 23.67677710019052 50.062103798612952 13.579599006101487 5.6197797786444417 0.95812638849019904 19.84427154622972 10928.868650313467 7.4254795107990494 63.733830342069268 10.539390273392199 16.711935276165605 48.735467260703444 4.7906319424509993 1.1976579856127489 50.983379172161222 57.450732294470072 20.636568367481232 6.3752255849540225 83.928186530247331 46.321725782006979 31.175958640873432 57.634987369179726
leaf_count=1789 151 605 2495 2009 187 2336 1227 2339 1285 2717 737 305 52 1077 593138 403 3459 572 907 2645 260 65 2767 3118 1120 346 4555 2514 1692 3128
internal_value=3.95611 2.35813 4.04303 2.07691 2.96008 3.40381 4.05387 1.92068 2.54584 1.84711 3.20059 3.55067 2.59534 2.4032 4.05588 2.70614 1.73124 2.06951 2.26446 2.94459 3.69232 1.79969 3.40749 2.7355 1.78627 2.11988 3.73791 2.99293 1.99864 1.7304
internal_weight=11792.3 608.392 11183.9 414.666 193.726 186.485 10997.4 311.041 103.625 267.944 116.744 137.381 76.9818 79.9483 10951.5 65.8343 176.166 91.7775 60.104 52.181 94.3386 143.203 64.563 64.8762 142.005 43.3921 88.7188 49.104 81.2381 121.369
internal_count=640000 33019 606981 22505 10514 10121 596860 16881 5624 14542 6336 7456 4178 4339 594365 3573 9561 4981 3262 2832 5120 7772 3504 3521 7707 2355 4815 2665 4409 6587
>>>>>>> 5dd2c62abcc99357697d23886080f074089f813f
is_linear=0
shrinkage=1


Tree=1
num_leaves=31
num_cat=0
<<<<<<< HEAD
split_feature=88 18 33 26 37 80 25 0 21 99 20 96 13 62 10 59 26 6 31 56 30 68 28 93 30 97 3 98 91 0
split_gain=2785.79 87.411 54.7283 45.1279 36.6174 36.1755 38.8553 49.507 46.9411 52.5117 89.1065 69.3813 54.3007 54.0192 42.8849 42.2814 52.9457 62.9992 37.6954 36.0596 48.3783 35.0324 39.2175 34.3467 37.1176 31.3338 59.6325 30.616 27.0222 26.033
threshold=0.19920600205659869 0.19903899729251864 0.056254999712109573 0.18258149921894076 0.11669299751520158 0.1476320028305054 0.10943899676203729 0.13354950398206714 0.11940049752593042 0.16280100494623187 0.083541497588157668 0.13170500099658969 0.10627299919724466 0.15049800276756289 0.07533499971032144 0.17662949860095981 0.15692349523305896 0.15635750442743304 0.078661497682333006 0.15687749534845355 0.10540200024843217 0.09104300290346147 0.14915649592876437 0.078807000070810332 0.12541999667882922 0.15720549970865252 0.12103400006890298 0.12879899889230731 0.10164849832654001 0.068734999746084227
decision_type=2 2 2 2 2 2 2 2 2 2 2 2 2 2 2 2 2 2 2 2 2 2 2 2 2 2 2 2 2 2
left_child=1 2 -1 4 29 6 19 8 14 13 -11 -12 -13 23 21 25 17 -17 -9 -6 -21 -8 -23 -10 -25 -16 -27 -3 -14 -4
right_child=-2 27 3 -5 5 -7 7 18 9 10 11 12 28 -15 15 16 -18 -19 -20 20 -22 22 -24 24 -26 26 -28 -29 -30 -31
leaf_value=-0.16803736710405345 0.10101479615257077 -0.76143415366196487 -0.20011867943359332 -0.024063606883164869 -0.22512559952486055 0.0071305852052063511 -0.90025946056918194 -0.80366775774912369 -0.84126067497061541 -1.8148390701957382 -1.3341762595806754 -1.2254157240012553 -0.68440067067650567 -1.1305644516717794 -0.10917704202076157 -0.5253476412611312 0.10330496319973369 -1.7827780244127465 -0.057716171575313738 -1.0396154755021869 -0.15337842928880702 -0.27927825612487023 -0.89237248421483317 -0.072819759189353336 -0.78772421047141805 -0.99786539421347753 -0.081611915528087692 0.068244770005876171 0.10314819026178111 -0.2793527170314779
leaf_weight=88.517786473035812 1017.8834192790091 0.46227075904607673 80.281847117468715 7.8788698613643637 29.050060819834474 3.1398536190390578 2.1767207104712751 0.77086740359663863 1.0517832115292529 0.83405862748622883 1.1110345236957075 0.60193882137537036 0.63449576124548945 0.9721122346818446 9.6472677737474424 1.2574095055460923 0.69002810120582569 0.58326746523380268 5.5891396403312683 1.3100630529224866 1.162567466497421 4.2917754966765642 1.3784384652972219 3.8080767802894115 0.89738988690078247 1.2688058987259858 1.6137361153960226 11.743517007678745 1.390396900475025 85.766425529494882
leaf_count=756 58708 15 752 343 489 140 33 23 18 29 32 20 22 31 205 37 26 22 214 34 32 79 27 87 29 32 49 588 56 1072
internal_value=0.0173429 -0.226077 -0.23558 -0.259576 -0.267266 -0.325143 -0.339614 -0.404329 -0.45196 -0.618736 -0.880254 -0.671713 -0.39152 -0.441061 -0.369682 -0.27092 -0.643746 -0.923798 -0.14813 -0.256329 -0.62293 -0.559237 -0.428322 -0.324638 -0.209161 -0.195618 -0.484918 0.0368223 -0.143629 -0.241044
internal_weight=1367.77 349.882 337.676 249.158 241.28 75.2313 72.0914 40.5687 34.2087 11.3013 4.57192 3.73787 2.62683 6.72936 22.9074 15.0605 2.53071 1.84068 6.36001 31.5227 2.47263 7.84693 5.67021 5.75725 4.70547 12.5298 2.88254 12.2058 2.02489 166.048
internal_count=64000 5292 4689 3933 3590 1766 1626 1071 834 324 159 130 98 165 510 371 85 59 237 555 66 139 106 134 116 286 81 603 78 1824
=======
split_feature=19 18 29 19 18 7 79 17 38 17 66 39 15 68 19 69 99 27 48 55 96 79 87 15 45 3 73 85 12 58
split_gain=29732.8 640.034 183.012 202.921 163.948 157.286 144.903 122.27 94.4574 85.6093 84.1284 63.4513 60.2165 61.8333 60.1443 64.448 54.9352 53.9651 55.1466 51.0891 49.3922 49.0305 46.3302 45.7328 47.7919 44.5624 43.8026 51.8618 43.148 40.5476
threshold=0.20021000504493716 0.1846595034003258 0.21504150331020358 0.117553498595953 0.12088049948215486 0.19087649881839755 0.1317819952964783 0.15049249678850177 0.1564540043473244 0.10990750044584276 0.18894800543785098 0.20033749938011172 0.097257997840642943 0.13498750329017642 0.14847899973392489 0.1855610013008118 0.15513300150632861 0.17734599858522418 0.156640499830246 0.13907949626445773 0.10655250027775766 0.17020899802446368 0.089778501540422453 0.10882899910211564 0.14516900479793551 0.11745600029826166 0.11700899899005891 0.16234700381755832 0.13075600564479831 0.19160100072622302
decision_type=2 2 2 2 2 2 2 2 2 2 2 2 2 2 2 2 2 2 2 2 2 2 2 2 2 2 2 2 2 2
left_child=1 2 3 4 9 10 17 12 23 22 11 14 13 -3 -5 29 -9 26 -19 -15 -7 -11 -1 24 28 -10 27 -2 -8 -16
right_child=6 7 -4 5 -6 20 8 16 25 21 -12 -13 -14 19 15 -17 -18 18 -20 -21 -22 -23 -24 -25 -26 -27 -28 -29 -30 -31
leaf_value=-0.21389600393111646 -1.1646111918265072 0.0046245929199879845 0.0093782381159265155 -0.29851654721446258 -0.31458929151903664 -0.78405079053945403 -1.4226819041648355 -0.15555027508823382 -0.048470999298391174 -0.29198575392004095 -0.097768062967868261 -0.16067582080806331 -0.15537002036924255 -0.43889669122715891 -0.38399604783067282 -0.22187890140156502 0.038017448597015197 -1.7790171726291957 -0.44153921270001617 -1.4860226099034259 -0.076105268275814431 -0.036240467258994866 -0.24993472869565403 -0.04054729261877936 0.0053791019589883877 0.10138825428965037 0.017417290333901707 0.10311656914002441 -0.25331953785186828 -0.18285211307426613
leaf_weight=1231.862459551543 0.86763399280607634 1.0041121486574405 25.816308941692114 497.09927167370915 276.94422104209661 1.013888707384466 0.72077230922878077 17.387735165655613 19.882878812029958 263.81507432088256 18.436347151175141 26.146760582923889 44.835742622613907 0.92076352797448613 226.17289350368083 31.061801427975297 93.518421705812216 0.53126383386552312 0.73448313400149345 0.94327026978135109 35.201369881629944 7.7156143747270098 502.12094894051552 27.955618940293789 1.0244628041982649 9825.3997141961008 2.3328745607286692 0.51379142142832279 0.56125838309526443 10.486599970608948
leaf_count=9561 33 28 1252 8464 4492 34 25 665 945 3454 758 991 1601 27 6296 1136 4867 19 28 27 1482 146 4981 1267 40 586865 87 20 22 387
internal_value=0.0133487 -0.245924 -0.255782 -0.25797 -0.242467 -0.299815 0.100271 -0.0499127 0.100543 -0.232508 -0.308937 -0.313859 -0.183786 -0.628001 -0.319096 -0.357308 0.00767013 -0.439007 -1.00291 -0.968781 -0.095925 -0.284719 -0.224332 -0.0758579 -0.503837 0.101086 -0.246842 -0.693107 -0.910748 -0.375083
internal_weight=13193 3312.5 3153.89 3128.08 2282.46 845.619 9880.52 158.61 9875.54 2005.51 809.404 790.967 47.7039 2.86815 764.821 267.721 110.906 4.98005 1.26575 1.86403 36.2153 271.531 1733.98 30.2621 2.30649 9845.28 3.7143 1.38143 1.28203 236.659
internal_count=640000 50649 43434 42182 22634 19548 589351 7215 589164 18142 18032 17274 1683 82 16283 7819 5532 187 47 54 1516 3600 14542 1354 87 587810 140 53 47 6683
>>>>>>> 5dd2c62abcc99357697d23886080f074089f813f
is_linear=0
shrinkage=0.1


Tree=2
num_leaves=31
num_cat=0
<<<<<<< HEAD
split_feature=28 17 4 59 41 33 5 29 11 24 8 77 92 96 34 62 69 10 46 59 92 7 66 41 16 88 36 84 43 94
split_gain=2087.27 41.553 36.9481 24.0948 29.6202 23.4573 25.4295 21.9269 17.4652 21.7761 17.3647 16.4196 74.1371 27.976 36.2661 40.7104 27.8052 29.6114 32.6387 25.6554 22.0023 21.317 18.3567 16.9751 16.6418 18.5244 22.0376 17.388 21.8434 30.7904
threshold=0.18502299487590793 0.13691850006580356 0.1712949946522713 0.17662949860095981 0.11050099879503252 0.056254999712109573 0.17995149642229083 0.17661850154399875 0.11007099971175195 0.12211900204420091 0.16334099322557452 0.15028200298547748 0.087189998477697386 0.086393497884273543 0.11137799918651582 0.1014389991760254 0.15450199693441394 0.07533499971032144 0.13809850066900256 0.16896750032901767 0.12571399658918384 0.15669149905443194 0.11281950026750566 0.10207099840044977 0.15801050513982776 0.1641189977526665 0.099811997264623656 0.14390999823808673 0.14750249683856967 0.12187400087714197
decision_type=2 2 2 2 2 2 2 2 2 2 2 2 2 2 2 2 2 2 2 2 2 2 2 2 2 2 2 2 2 2
left_child=2 3 5 4 -2 8 11 -6 9 -1 -3 24 13 -13 15 -15 23 -18 19 20 -19 -21 -16 -14 25 27 -27 28 -7 -30
right_child=1 10 -4 -5 7 6 -8 -9 -10 -11 -12 12 16 14 22 -17 17 18 -20 21 -22 -23 -24 -25 -26 26 -28 -29 29 -31
leaf_value=-0.13752862980443695 0.10395374977370778 -0.049023458323566901 0.020583560874810881 0.10572165516508225 -0.88904585114674561 -0.19086269642690418 0.038715631452339888 -0.22320574023590029 0.045539796337220884 -0.39876113274515457 0.10143267131814318 -0.8768390865567911 -0.17931095347253664 -1.0087555139715221 -0.57263453838161371 -0.30365722570070897 -0.59249908458573775 -0.46527686860681794 -0.084670345615130205 -1.0246794899119545 0.10503728514017135 -0.37237313193599514 -0.075870695772344773 0.057262932463143318 -0.069496087548206742 -0.64368035316094396 -0.25377209401694628 -0.054039834531004839 -0.75138620751845986 -0.065011193192367853
leaf_weight=88.863605173304677 0.88566156663000528 7.7349363770335904 9.4453712329268438 1.6063668206334112 1.1038070674985645 217.97567901946604 4.627156125381588 0.89609148912131775 4.9699356947094193 3.3098366670310488 927.05572498589754 1.712771400809286 6.3923433404415864 1.6971549876034262 1.0264765769243243 1.5822821501642463 2.3986727371811858 1.5603975690901264 7.900289623066783 0.97116292826831374 1.1941298972815273 1.0347905606031416 2.7018187884241343 5.7715155575424433 11.221886886283754 1.8583060372620801 6.5903825499117374 9.1967009678482992 1.6288927569985383 1.0915348976850507
leaf_count=664 28 250 390 54 25 2032 201 18 54 38 58835 21 106 27 16 22 36 32 280 24 33 20 50 127 232 32 141 161 29 22
internal_value=0.017497 0.0987297 -0.17483 -0.20469 -0.377493 -0.179596 -0.193837 -0.590704 -0.137063 -0.146909 0.100188 -0.197605 -0.260796 -0.514545 -0.425997 -0.668556 -0.179512 -0.270341 -0.209305 -0.416144 -0.218037 -0.688181 -0.21264 -0.0670612 -0.188504 -0.194108 -0.339533 -0.188763 -0.194377 -0.475987
internal_weight=1336.01 939.283 396.723 4.49193 2.88556 387.278 290.134 1.9999 97.1434 92.1734 934.791 285.507 35.9438 8.7205 7.00773 3.27944 27.2233 15.0594 12.6608 4.76048 2.75453 2.00595 3.7283 12.1639 249.563 238.341 8.44869 229.893 220.696 2.72043
internal_count=64000 59210 4790 125 71 4400 3644 43 756 702 59085 3443 794 136 115 49 658 425 389 109 65 44 66 233 2649 2417 173 2244 2083 51
=======
split_feature=19 18 7 18 13 83 74 19 17 89 18 73 75 33 84 14 11 67 16 65 41 36 51 4 1 99 88 37 37 47
split_gain=21797.7 357.2 144.889 131.994 79.7342 72.2573 52.9577 52.3157 73.6155 47.5442 44.8883 42.4043 41.8618 57.8947 61.984 41.8295 40.7608 35.1942 34.8961 33.6628 45.2673 31.7166 35.5268 45.0483 30.6916 38.902 48.3229 29.2836 50.5415 41.6701
threshold=0.20021000504493716 0.19906200468540194 0.19747450202703479 0.17056900262832644 0.17285149544477466 0.095757499337196364 0.11597499996423723 0.117553498595953 0.17053899914026263 0.12491549924016 0.12088049948215486 0.10161200165748598 0.10944049805402757 0.13683799654245379 0.14356850087642672 0.11080650240182878 0.123564500361681 0.18452050536870959 0.16997049748897555 0.10896100103855134 0.1328454986214638 0.13210099935531619 0.15451150387525561 0.14364550262689593 0.11052949726581575 0.20041500031948092 0.17009200155735019 0.17757599800825122 0.1505755037069321 0.20398350059986117
decision_type=2 2 2 2 2 2 2 2 2 2 2 2 2 2 2 2 2 2 2 2 2 2 2 2 2 2 2 2 2 2
left_child=1 2 4 11 7 17 -5 10 18 -8 -1 24 13 -7 -15 -10 27 -3 -9 20 -6 22 -13 -24 25 26 -2 28 -17 -30
right_child=3 5 -4 6 19 12 9 8 15 -11 -12 21 -14 14 -16 16 -18 -19 -20 -21 -22 -23 23 -25 -26 -27 -28 -29 29 -31
leaf_value=-0.17604166509241251 -1.196635752809488 -0.26251323999256421 -0.0075517492135401838 -0.14224242919653543 -1.0901207056435867 0.054408202073874451 -0.85206441755431284 -0.22094755624601894 -0.23191061012810388 0.1012658148139669 -0.21380596775942956 -0.094776726902727967 0.04052275434137894 -0.13609776427833978 -1.3595928570108029 -0.11955935375586733 -0.026034648299458753 -1.0149721595846388 -0.14704557674847429 0.0016447976177866878 0.10346937882215097 0.014685179270889973 -0.98321347691653538 0.1025781200273958 -0.11084712997817719 0.10601480130703821 -0.16267708241353973 -0.033170551967950268 -0.31828290377839807 -1.0305634807580517
leaf_weight=2360.2390693835914 1.1503361118957394 2.7297298051416869 45.369391143321991 8.9441236983984691 0.66999947838485485 2.0321309156715865 0.52316228579729696 923.23129284381866 32.028584683313966 8900.3260294711217 363.18668512627482 7.028784425929187 88.916244052350521 0.83600589632987954 0.82042552717030048 23.151124255731702 41.518306782469153 0.80486947670578946 68.645437985658646 27.548301193863153 0.60435011237859726 45.267775872722268 1.0998486159369347 0.58553223405033339 3.7271128240972757 0.65033395215868939 0.74458200018852938 13.171754766255615 11.826849712058898 0.8826349079608925
leaf_count=18141 32 93 2047 387 21 68 19 14559 761 586236 4600 273 4439 31 31 621 1424 30 1810 1070 20 2160 32 27 140 19 26 489 352 42
internal_value=0.0133364 -0.180538 -0.185217 0.0999678 -0.187302 0.00989149 0.100965 -0.188546 -0.206798 0.10121 -0.181078 -0.0475415 0.0268288 -0.303278 -0.742091 -0.133688 -0.0989463 -0.433857 -0.215833 -0.0215989 -0.52407 -0.0189457 -0.193649 -0.60599 -0.293646 -0.561325 -0.790356 -0.160685 -0.207521 -0.367749
internal_weight=12978.3 4008.21 3912.07 8970.05 3866.7 96.1394 8909.79 3837.88 1114.46 8900.85 2723.43 60.2543 92.6048 3.68856 1.65643 122.579 90.5507 3.5346 991.877 28.8227 1.27435 53.9819 8.71417 1.68538 6.27236 2.54525 1.89492 49.0324 35.8606 12.7095
internal_count=640000 50649 45957 589351 43910 4692 586642 42799 20058 586255 22741 2709 4569 130 62 3689 2928 123 16369 1111 41 2492 332 59 217 77 58 1504 1015 394
>>>>>>> 5dd2c62abcc99357697d23886080f074089f813f
is_linear=0
shrinkage=0.1


Tree=3
num_leaves=31
num_cat=0
<<<<<<< HEAD
split_feature=98 16 24 13 21 78 53 65 42 77 22 96 1 15 75 65 17 55 43 16 91 36 87 8 50 75 46 62 50 13
split_gain=1653.72 42.8106 23.0814 22.4706 19.1639 17.5714 17.2925 26.0431 25.6711 23.9451 27.9024 21.7589 20.3542 33.8732 18.9005 16.8044 44.1796 16.2452 22.3394 31.3572 29.0174 22.793 17.0487 15.0462 15.6206 15.6703 17.5784 14.3843 14.3318 14.3151
threshold=0.20002350211143496 0.15801050513982776 0.10641049966216089 0.078709498047828688 0.12856999784708026 0.12959299981594088 0.096564497798681273 0.089151002466678633 0.14498749375343326 0.10929000005126001 0.12006549909710885 0.125390499830246 0.089261002838611617 0.095967996865510954 0.098196499049663558 0.10895999893546106 0.17142049968242648 0.12222000211477281 0.090181998908519759 0.093280002474784865 0.11012050136923791 0.11868150159716608 0.11066399887204172 0.053004501387476928 0.039606001228094108 0.068835500627756133 0.13809850066900256 0.096582997590303435 0.10881299898028375 0.11164199933409692
decision_type=2 2 2 2 2 2 2 2 2 2 2 2 2 2 2 2 2 2 2 2 2 2 2 2 2 2 2 2 2 2
left_child=1 6 4 -2 5 -3 8 9 -1 23 12 -10 13 -11 -14 16 -4 18 28 20 22 -21 -20 -8 -25 -26 -27 -5 -9 -30
right_child=3 2 15 27 -6 -7 7 17 11 10 -12 -13 14 -15 -16 -17 -18 -19 19 21 -22 -23 -24 24 25 26 -28 -29 29 -31
leaf_value=-0.12700125060589382 -2.1511392629320047 -0.31434043726676275 -0.0040299095906695878 -0.19761658797085954 -0.41824324195675455 0.034960585307797894 -0.3071823779724196 -0.070835194362545567 -0.67020244570244913 -0.30522855425211382 -0.050242426677203016 -0.14555390604653967 -0.4857865003146552 -0.75197801724523261 -0.14204724479708708 0.03424551297769874 -0.74248802390357382 -0.093094561443195112 -0.10942226700691247 -0.030159931120628414 -0.6689479267756282 -0.2593037693670216 -0.47081530441286229 -0.01558948142664493 -0.30255027314773081 -0.098435065342449043 -0.40539293793050679 0.10102817761304717 -0.3978969154848162 -0.062225989115368252
leaf_weight=263.87722154241055 0.044325955212115242 2.225571455433963 3.5391381122171905 1.615906300023197 2.4422720884904265 4.0808030189946294 7.977188102900981 19.730004256591204 1.6160551160573953 3.722755793482067 3.0059108361601821 1.5474211229011414 2.5000516921281815 3.1192152965813875 4.4412876963615417 26.386001138016582 1.0506730647757647 40.985426576808095 2.9541151411831397 7.1515258010476854 2.7624051384627819 11.045549585483966 2.3388599306344986 6.5241216123104087 8.2418057993054408 15.469622023403646 2.1214583609253159 838.83819170389324 3.0308808442205182 2.1873721294105053
leaf_count=2081 1 32 69 38 37 80 54 170 20 37 35 26 28 36 46 1010 21 818 28 99 29 175 24 47 64 140 24 58669 36 26
internal_value=0.0171431 -0.136171 -0.0369837 0.100335 -0.180415 -0.0883106 -0.145635 -0.17289 -0.130396 -0.225945 -0.326296 -0.413569 -0.386499 -0.508899 -0.265851 0.00352622 -0.173073 -0.140014 -0.177572 -0.241965 -0.406228 -0.169249 -0.269115 -0.184174 -0.153848 -0.188765 -0.135454 0.100454 -0.109814 -0.257191
internal_weight=1296.57 456.075 39.7245 840.498 8.74865 6.30637 416.35 149.31 267.041 57.1234 16.7892 3.16348 13.7833 6.84197 6.94134 30.9758 4.58981 92.1861 51.2007 26.2525 8.05538 18.1971 5.29298 40.3342 32.357 25.8329 17.5911 840.454 24.9483 5.21825
internal_count=64000 5292 1249 58708 149 112 4043 1916 2127 511 182 46 147 73 74 1100 90 1405 587 355 81 274 52 329 275 228 164 58707 232 62
=======
split_feature=19 15 89 16 39 78 37 16 85 64 93 16 9 86 54 17 86 82 70 14 19 13 69 84 79 3 2 95 7 45
split_gain=17003.7 229.854 127.155 107.592 57.9967 46.3622 43.9698 43.2379 33.3265 39.6411 33.0938 31.9976 31.8348 30.4848 30.6244 29.2988 29.5806 26.8106 60.555 26.4392 25.7212 25.2696 23.7567 33.34 23.6448 22.4887 22.3581 22.2983 38.5626 23.266
threshold=0.20021000504493716 0.17488799989223483 0.1773134991526604 0.18876300007104876 0.20794149488210681 0.15642250329256061 0.1303990036249161 0.13188600540161136 0.11505600064992906 0.1713724955916405 0.055947000160813339 0.16997049748897555 0.12448400259017946 0.19467850029468539 0.066298998892307295 0.19154900312423709 0.10643349960446359 0.16392900049686435 0.10862850025296213 0.13830749690532687 0.14847899973392489 0.091336499899625792 0.07700549811124803 0.087514001876115813 0.1317819952964783 0.11745600029826166 0.086524501442909255 0.18641350418329242 0.15749250352382663 0.1273865029215813
decision_type=2 2 2 2 2 2 2 2 2 2 2 2 2 2 2 2 2 2 2 2 2 2 2 2 2 2 2 2 2 2
left_child=1 3 11 4 10 -4 17 -8 9 -5 -1 15 -6 14 -12 16 -2 -3 -19 20 27 -14 23 -22 -10 -7 -15 29 -29 -16
right_child=2 6 5 8 12 25 7 -9 24 -11 13 -13 21 26 19 -17 -18 18 -20 -21 22 -23 -24 -25 -26 -27 -28 28 -30 -31
leaf_value=-0.13350610224472645 -0.64364560455160635 -0.12415230864797377 -0.062992200787004113 -0.10958805868107527 -0.76643529709882829 -0.026561686784900226 -0.12622633871508662 0.037070995164207275 -0.3750519936085463 -0.82830055223785881 -0.13841279695533146 0.043894919394739725 -0.46239172553823099 -0.54380876081098661 -0.16475794990024653 0.063962822140237963 -0.13641988764155966 -1.3045432341175589 -0.014283325429866399 -0.1344655353102655 -0.61238483518246778 -0.0017374161005018402 -0.18694310687258431 -0.17420650167055937 0.034216471914425256 0.10128125941500875 0.0080566739863310328 -0.90535040796226363 -0.11017958209869401 -0.13339399435887092
leaf_weight=1139.4880823865533 1.2037812229245926 15.223800786770882 17.262861490249634 3.7362775914371005 0.5737878754734983 13.783303139731286 19.469388366676867 96.9927514847368 1.4558777706697572 0.96579658612608899 898.43022390082479 22.15518874488771 1.229297182522713 0.77009475417435425 1346.7723308168352 7.5373882120475164 25.617704898118973 0.63846217468380817 0.84536422044038773 339.72891435120255 3.1815312132239333 38.05147675331682 301.87319935392588 3.8230567015707493 46.442953892052174 8054.7063984144479 15.716279719956217 1.0879141502082341 1.3879767842590807 286.9002263341099
leaf_count=7760 39 357 770 106 14 623 547 4282 33 33 6406 1149 29 18 11647 379 963 16 30 6084 41 1537 5545 44 1981 585428 612 24 32 3471
internal_value=0.0130542 -0.14144 0.0996679 -0.14533 -0.147037 0.100713 -0.011992 0.009772 -0.00316225 -0.25721 -0.14814 -0.0498099 -0.0269555 -0.153352 -0.154054 -0.110232 -0.159185 -0.1637 -0.569458 -0.160205 -0.164701 -0.0161537 -0.191168 -0.37323 0.0217768 0.101063 -0.0177215 -0.159704 -0.45958 -0.15925
internal_weight=12707.1 4564.79 8142.27 4431.62 4379.01 8085.75 133.17 116.462 52.6009 4.70207 4339.16 56.5141 39.8546 3199.67 3183.19 34.3589 26.8215 16.7076 1.48383 2284.76 1945.03 39.2808 308.878 7.00459 47.8988 8068.49 16.4864 1636.15 2.47589 1633.67
internal_count=640000 50649 589351 45417 43264 586821 5232 4829 2153 139 41684 2530 1580 33924 33294 1381 1002 403 46 26888 20804 1566 5630 85 2014 586051 630 15174 56 15118
>>>>>>> 5dd2c62abcc99357697d23886080f074089f813f
is_linear=0
shrinkage=0.1


Tree=4
num_leaves=31
num_cat=0
<<<<<<< HEAD
split_feature=28 52 17 98 86 67 32 70 42 74 74 42 96 52 83 31 60 8 83 39 73 42 42 49 10 70 62 2 46 3
split_gain=1352.07 28.3339 19.2788 18.6493 16.9737 18.1829 10.2036 12.7451 17.557 16.4896 12.597 18.1554 10.9481 10.2155 24.3874 14.1247 25.0593 15.0597 14.1336 20.3776 18.6174 15.8309 13.2974 19.7012 17.1125 14.3687 12.8988 12.6083 14.6396 12.5503
threshold=0.19893100112676623 0.16919250041246417 0.14377599954605105 0.20692600309848788 0.16346050053834918 0.16342400014400485 0.1635365039110184 0.14433749765157702 0.091807499527931227 0.1108985021710396 0.17168350517749789 0.12083600088953973 0.125390499830246 0.10635900124907495 0.1064869984984398 0.078661497682333006 0.11229449883103372 0.17024750262498858 0.064116001129150405 0.094008497893810286 0.071381002664566054 0.096587497740983977 0.068496499210596098 0.10991699993610383 0.084222499281167998 0.074209500104188933 0.1014389991760254 0.044345499947667129 0.12539149820804599 0.16797200590372088
decision_type=2 2 2 2 2 2 2 2 2 2 2 2 2 2 2 2 2 2 2 2 2 2 2 2 2 2 2 2 2 2
left_child=1 3 4 6 5 -2 7 13 -9 -10 12 -12 -11 -1 15 16 22 18 20 -20 -17 -21 -15 25 -25 -24 -18 -16 -29 -30
right_child=2 -3 -4 -5 -6 -7 -8 8 9 10 11 -13 -14 14 27 17 26 -19 19 21 -22 -23 23 24 -26 -27 -28 28 29 -31
leaf_value=-0.10811669855984048 -0.016220196431942575 0.088344709312000197 0.1010938648355557 0.056711442341645171 0.10538592335499519 -0.67179471177902195 0.016768466037516125 -0.49598445984338729 -0.43487608056353388 -0.20912952395910553 -0.81933482601876995 -0.096846863045272472 0.078865199981702272 -0.094924825365845011 -0.36156625079249571 -0.26891578582146364 -0.30957649608817661 0.07416218095602678 -0.027602964702859174 -0.34501482154094559 0.043360344026373739 -0.1680287193504908 -0.24090403530582649 0.061107548367906717 -0.29733597087643404 -0.53178760073744102 -0.66331993096007014 -0.028180147803724701 -0.15949123891356842 0.10408658090884515
leaf_weight=352.14388397522271 0.80312447808682852 6.9376997910439959 759.8847882784903 6.2309321481734505 1.4380074357613919 0.89405573438853025 5.6013461630791417 1.9700311198830593 1.8220922779291848 2.1105672586709261 0.53948438260704257 0.97896270453929901 3.5239353301003575 7.6557005979120794 1.6687040627002705 2.7960644215345365 2.3031868655234566 2.8511792244389644 5.2942688502371338 9.1976645607501286 6.0188071690499783 11.217916199937461 3.6672163382172567 2.6501111462712288 2.6776257008314133 3.1626910306513309 1.8658597376197574 24.80048886500299 21.965658565051857 1.9683844801038493
leaf_count=2793 21 376 58616 308 49 20 181 29 30 23 14 34 109 63 15 21 24 55 43 90 57 129 28 23 32 27 19 305 389 77
internal_value=0.0166427 -0.112321 0.100073 -0.115181 -0.147392 -0.36157 -0.11741 -0.118993 -0.225652 -0.166314 -0.0979028 -0.353537 -0.0290116 -0.116477 -0.142817 -0.185155 -0.245052 -0.146722 -0.164964 -0.202428 -0.0556932 -0.247765 -0.198162 -0.263171 -0.11904 -0.375602 -0.467895 -0.0912774 -0.0820225 -0.137814
internal_weight=1256.64 493.62 763.02 486.683 3.13519 1.69718 480.452 474.85 10.9451 8.97504 7.15295 1.51845 5.6345 463.905 111.762 61.3583 23.9824 37.3759 34.5247 25.7098 8.81487 20.4156 19.8133 12.1576 5.32774 6.82991 4.16905 50.4032 48.7345 23.934
internal_count=64000 5294 58706 4918 90 41 4610 4429 239 210 180 48 132 4190 1397 611 216 395 340 262 78 219 173 110 55 55 43 786 771 466
=======
split_feature=18 17 16 17 15 94 89 9 92 79 24 43 10 93 3 88 21 8 90 14 30 75 82 15 77 16 9 38 44 38
split_gain=13743.4 211.53 95.9933 93.8164 54.0783 37.3472 29.1438 26.8195 26.4307 25.6668 24.8201 23.921 29.8553 22.5431 27.8715 24.025 22.2557 23.2608 22.1068 21.8959 21.3741 34.1062 19.1433 28.0072 18.7308 18.6129 18.3744 18.2008 17.8613 16.7311
threshold=0.19906200468540194 0.19811149686574939 0.18876300007104876 0.15691500157117846 0.1927515044808388 0.18833049386739734 0.13934350013732913 0.14756150543689731 0.097392000257968916 0.16292849928140643 0.18274249881505969 0.10628900304436685 0.12479500100016595 0.10627250000834466 0.15821299701929095 0.12831749767065051 0.077646497637033476 0.13500349968671801 0.15269099920988086 0.12739349901676181 0.10913100093603136 0.14489150047302249 0.13527899980545047 0.13908600062131884 0.13096100091934207 0.1256309971213341 0.16260049492120746 0.13558249920606616 0.1661770045757294 0.17097300291061404
decision_type=2 2 2 2 2 2 2 2 2 2 2 2 2 2 2 2 2 2 2 2 2 2 2 2 2 2 2 2 2 2
left_child=1 2 4 9 5 10 22 20 18 11 -1 12 -2 14 19 -15 -8 -18 24 -11 21 -3 23 -5 -4 27 28 -9 -13 -10
right_child=3 7 8 6 -6 -7 16 25 29 13 -12 26 -14 15 -16 -17 17 -19 -20 -21 -22 -23 -24 -25 -26 -27 -28 -29 -30 -31
leaf_value=-0.12024440065374659 -0.74671067328014418 -0.79711185184460098 -0.44007499359309821 0.0018155596225579271 0.041183905361756541 0.049392465684164617 -0.34814858207142735 -0.52772916571054962 -0.044274107464755429 -0.50344993917553804 -0.0094982577778208403 -0.13192214436719571 -0.0069472415077934634 -0.41745078452771678 -0.66742778542800174 0.051486215799983359 -0.13577550212252193 0.10105285941789388 -0.56799923705463606 0.10530792592309784 -0.0014121653855102396 -0.078743622451239226 0.10473004609801138 -0.74298211253632218 -0.012006105565635266 0.067057529426116647 0.0049988133308065657 -0.040423046505321802 -0.61286328719583194 0.069351849164126997
leaf_weight=4847.6996003650129 1.4094298183917993 1.1069367025047534 1.275871162302791 0.96547330450266589 21.080312009900808 13.084389373660086 1.1037861462682474 0.9400360593572249 20.251584714278579 0.81942948978394259 20.321802327409387 2.5166381038725363 0.89007539954036463 1.138579318299892 1.0375427007675169 27.013945830054581 4.1495757615193716 7306.6927990084514 1.180444956757128 2.118068378418684 3.7675872147083282 1.6401929110288618 1.294632203876972 1.0583272892981765 5.1409124629572034 76.597379799000919 6.0588395278900862 4.1507595190778375 1.1140262894332407 35.987079661339521
leaf_count=43054 39 30 30 28 1005 587 34 24 750 22 763 70 25 31 38 1160 132 585061 34 63 105 49 42 31 153 4406 206 142 32 1854
internal_value=0.0126418 -0.114325 -0.117052 0.0998394 -0.118638 -0.119329 0.100716 0.0391794 0.00478503 -0.04555 -0.119782 -0.170413 -0.460369 0.00104483 -0.221879 0.0325209 0.100851 0.100918 -0.170285 -0.0645081 -0.156082 -0.368205 -0.195568 -0.387669 -0.0971205 0.0547516 -0.101601 -0.130406 -0.279493 0.0284351
internal_weight=12413.6 5054.22 4966.02 7359.38 4902.19 4881.11 7315.26 88.2029 63.8359 44.1166 4868.02 11.989 2.29951 32.1276 3.97504 28.1525 7311.95 7310.84 7.59723 2.9375 6.51472 2.74713 3.31843 2.0238 6.41678 81.6882 9.6895 5.0908 3.63066 56.2387
internal_count=640000 52986 48230 587014 45409 44404 585328 4756 2821 1686 43817 372 64 1314 123 1191 585227 585193 217 85 184 79 101 59 183 4572 308 166 102 2604
>>>>>>> 5dd2c62abcc99357697d23886080f074089f813f
is_linear=0
shrinkage=0.1


Tree=5
num_leaves=31
num_cat=0
<<<<<<< HEAD
split_feature=9 44 14 16 57 93 46 28 53 7 53 50 61 6 43 63 34 4 79 62 60 56 61 21 24 20 62 99 81 15
split_gain=1129.07 38.8735 27.3345 17.6418 14.1478 15.3766 12.8113 14.2975 12.6385 12.3881 11.6429 13.852 17.7817 15.731 14.2656 12.7481 17.2161 12.1867 13.7135 11.7546 11.4338 11.3749 20.1543 25.0579 12.5433 12.215 11.3706 11.2796 11.277 11
threshold=0.21397450566291812 0.099750500172376647 0.17124500125646594 0.10641999915242197 0.11642799898982049 0.14727599918842318 0.094208501279354109 0.099619999527931227 0.14248800277709964 0.063933499157428755 0.096564497798681273 0.080742999911308302 0.10669400170445444 0.06187699921429158 0.044519498944282539 0.078716501593589797 0.11137799918651582 0.065978001803159728 0.14034999907016757 0.091987002640962615 0.063178498297929778 0.10670850053429605 0.083034999668598189 0.078207500278949751 0.12211900204420091 0.074104502797126784 0.11174299940466882 0.102122500538826 0.09745300188660623 0.17376850545406344
decision_type=2 2 2 2 2 2 2 2 2 2 2 2 2 2 2 2 2 2 2 2 2 2 2 2 2 2 2 2 2 2
left_child=2 -2 4 -3 5 10 21 -8 -7 -9 -1 12 14 -13 -12 20 17 -17 19 -19 27 22 23 25 28 -6 -14 -15 -23 -11
right_child=1 3 -4 -5 6 8 7 9 -10 29 11 13 26 15 -16 16 -18 18 -20 -21 -22 24 -24 -25 -26 -27 -28 -29 -30 -31
leaf_value=-0.09348941680871263 -3.7886139702879165 -1.6687986252294806 0.045858801680717709 0.10093990211362916 -0.18265482686508433 -0.33352686015396626 0.02049467615391512 -0.30141465621804298 -0.033789065623324531 -0.078503073855237415 -0.0052002340482303006 -0.28979363323042134 0.092782468718971764 -0.26490377537622278 -0.15376053613811694 -0.40959206915860646 -0.096043303247388037 -0.24013074905159951 -0.35870098535493855 -0.01306220265483264 0.0064763029883587028 -0.22807664399534794 0.015861811408430338 -0.011466420108222844 -0.36599755557678304 -0.46593535169861094 -0.17554245225740583 -0.022108292678138318 -0.019596391024817261 0.026767843619336623
leaf_weight=248.04209409281611 0.025698186829685166 0.056332539767025902 13.703038468025623 687.16661126166582 3.3768870942294615 5.2481321562081567 20.03586008399725 2.2993281260132781 1.9218832179903982 87.966307567432523 8.1267237402498704 8.8636401630938035 6.9862426519393903 4.4657189324498203 31.587915903888643 3.7137953601777616 12.854581383056937 5.0321449600160104 4.0178858824074259 4.1681446079164743 8.5501719862222654 6.3316249772906286 11.063747148960827 5.1588303595781326 3.2841724809259167 2.7713802866637707 2.0405813343822956 3.3479062877595425 4.3959010634571314 11.188513146713374
leaf_count=1627 1 1 676 58452 22 55 186 14 23 1423 53 53 63 29 219 26 138 36 36 39 69 54 92 43 37 21 23 24 41 424
internal_value=0.016048 0.100649 -0.093542 0.100795 -0.0972379 -0.10821 -0.0722896 -0.0567006 -0.253184 -0.0719456 -0.105255 -0.133384 -0.0945651 -0.167776 -0.123361 -0.144341 -0.183297 -0.249539 -0.20457 -0.137258 -0.0734321 -0.124345 -0.0800931 -0.173983 -0.194997 -0.310346 0.0321256 -0.160873 -0.142646 -0.0666244
internal_weight=1217.79 687.249 530.543 687.223 516.84 358.968 157.873 121.49 7.17002 101.454 351.798 103.755 48.7415 55.014 39.7146 46.1503 29.7866 16.932 13.2182 9.20029 16.3638 36.3825 22.3708 11.3071 14.0117 6.14827 9.02682 7.81363 10.7275 99.1548
internal_count=64000 58454 5546 58453 4870 2513 2357 2047 78 1861 2435 808 358 450 272 397 275 137 111 75 122 310 178 86 132 43 86 53 95 1847
=======
split_feature=19 89 12 17 66 56 74 22 3 76 50 83 73 49 5 10 57 99 87 63 23 50 18 26 29 62 53 38 80 11
split_gain=11391.1 159.438 84.9135 71.0183 53.2503 34.9368 24.4981 32.3802 47.6441 29.8525 27.3199 23.2418 22.9868 24.4477 20.5978 19.6676 23.3132 38.7612 28.2337 24.4846 22.7249 22.1634 23.9104 20.5832 19.6616 19.4514 18.7524 42.2152 18.3793 22.9576
threshold=0.20700649917125705 0.21484199911355975 0.16828100383281711 0.17053899914026263 0.19529300183057788 0.19632150232791903 0.12162249907851221 0.16318649798631671 0.17319650202989581 0.18274799734354022 0.084570500999689116 0.090590000152587905 0.10161200165748598 0.16275549679994586 0.12695650011301043 0.12479500100016595 0.11706199869513513 0.19326650351285937 0.15712850540876391 0.15808399766683581 0.10137550160288812 0.11709050089120866 0.13488150388002398 0.15177849680185321 0.21504150331020358 0.13938199728727343 0.17320000380277636 0.16389849781990054 0.056052999570965774 0.11034450307488443
decision_type=2 2 2 2 2 2 2 2 2 2 2 2 2 2 2 2 2 2 2 2 2 2 2 2 2 2 2 2 2 2
left_child=1 2 4 6 5 15 7 26 9 -9 14 -5 13 -3 -8 20 17 19 25 28 23 22 -21 -1 -18 -19 -2 -28 29 -17
right_child=3 12 -4 11 -6 -7 10 8 -10 -11 -12 -13 -14 -15 -16 16 24 18 -20 21 -22 -23 -24 -25 -26 -27 27 -29 -30 -31
leaf_value=-0.098564195946570302 0.012823989420237231 -0.58176705410321539 0.034166890754286833 -0.6770886402930133 0.022777047096645065 0.01746040259464918 -0.56327211870792815 0.036521044593537833 -1.2273192997128295 -0.76386983040062928 0.047179202005490271 0.10086294404722225 0.054325513121769711 -0.022298821658630383 -0.084987679652955936 -0.11307227694735961 -0.06755441330554969 -0.44261730525551224 -0.65134931791889805 -0.19843981438619135 -0.11227911929634656 -0.080197355967334016 -0.79046621906716508 -0.052648629775418822 0.081182493324551491 0.1084144074904593 -1.1272057682430892 0.10257226938317417 -0.080363347960422993 -0.36799432641807195
leaf_weight=3312.840738710016 7.3472435353323799 1.1634156834334128 48.746302398853004 0.38405209966003795 36.007216746918857 25.526437328197062 1.1981797767803062 1.4539508903399108 0.60155119560658921 0.68578203581273545 43.020254166796803 6605.2224468579516 78.671472220681608 2.3766151731833816 3.6233958825469017 11.164355557411911 275.79281709063798 1.2723024394363158 2.2372958343476057 1.2917831838130944 1416.1230334015563 2.1168224364519119 1.4456120524555442 100.59669450111687 9.1834945864975435 1.2902862224727867 0.48745345510542371 0.65316453855484724 114.84344321023673 5.1680714562535277
leaf_count=21649 244 33 2029 13 1584 1039 39 51 27 16 2382 584073 4248 77 128 96 4453 23 36 16 14623 32 25 1286 421 20 17 30 1240 50
internal_value=0.0121638 -0.0950975 -0.0972151 0.0998415 -0.0984196 -0.099246 -0.0093188 -0.142245 -0.44105 -0.220003 0.0218808 0.100818 0.0431088 -0.206166 -0.203843 -0.0998128 -0.0792102 -0.112495 -0.391784 -0.102641 -0.101629 -0.323185 -0.511088 -0.097211 -0.0627613 -0.165168 -0.0457409 -0.422985 -0.0944793 -0.193737
internal_weight=12112.5 5447.86 5365.65 6664.68 5316.9 5280.89 59.071 11.2291 2.74128 2.13973 47.8418 6605.61 82.2115 3.54003 4.82158 5255.37 425.806 140.83 4.79988 136.03 4829.56 4.85422 2.7374 3413.44 284.976 2.56259 8.48786 1.14062 131.176 16.3324
internal_count=640000 52980 48622 587020 46593 45009 2934 385 94 67 2549 584086 4358 110 167 43970 6412 1538 79 1459 37558 73 41 22935 4874 43 291 47 1386 146
>>>>>>> 5dd2c62abcc99357697d23886080f074089f813f
is_linear=0
shrinkage=0.1


Tree=6
num_leaves=31
num_cat=0
<<<<<<< HEAD
split_feature=9 8 11 37 42 65 63 83 0 33 11 1 0 66 15 79 56 95 21 10 10 91 57 39 82 85 42 27 34 8
split_gain=956.518 21.8237 11.0048 9.82514 11.5795 12.1581 7.93011 11.4751 8.26919 7.82473 11.1821 10.3716 15.5595 15.8059 12.8275 12.2465 14.2524 11.4546 10.9229 12.4118 10.7924 10.1525 9.79728 11.1314 11.4726 9.97092 11.4499 12.6219 21.6261 12.9362
threshold=0.21397450566291812 0.20741249620914462 0.14106100052595141 0.16353400051593783 0.15384300053119662 0.13873349875211718 0.10580850020051004 0.1064869984984398 0.079581998288631453 0.056254999712109573 0.11007099971175195 0.059048499912023551 0.10927100107073785 0.10033999755978586 0.082616500556468978 0.054289000108838088 0.070482000708580031 0.059400999918580062 0.042136499658226974 0.028223499655723575 0.07533499971032144 0.040846500545740135 0.11642799898982049 0.094008497893810286 0.042854500934481628 0.068317499011755004 0.12083600088953973 0.14209450036287311 0.088169500231742873 0.14949800074100497
decision_type=2 2 2 2 2 2 2 2 2 2 2 2 2 2 2 2 2 2 2 2 2 2 2 2 2 2 2 2 2 2
left_child=1 2 9 4 6 -6 7 -4 -8 10 11 18 13 14 15 16 -13 -16 -1 -20 -19 -17 -11 -24 -25 -26 -27 -28 -29 -30
right_child=-2 -3 3 -5 5 -7 8 -9 -10 22 -12 12 -14 -15 17 21 -18 20 19 -21 -22 -23 23 24 25 26 27 28 29 -31
leaf_value=-0.10417144039363219 0.10052837541506035 0.070972798353667918 -0.29214265751992535 0.064375875404072122 -0.51251334872212795 -0.0097012833004996128 -0.14950919045122077 -0.0042972538950328022 0.079975042776788755 -0.10393561480890444 0.067753554645692687 -0.06496919003167792 -0.27185389248846609 0.019988924612284402 -0.051238581570451927 -0.11994221704882316 -0.2730740037731843 -0.34286462515830457 0.1221026577052897 -0.03317880065746695 -0.13911656590954632 0.0270718162350779 -0.0070949556839302909 -0.32032955329322188 0.038646375311071901 -0.1119428313450514 0.013253121730556629 -0.49277720088122962 -0.16578073197198095 -0.00023594401820145944
leaf_weight=16.500329069793224 623.07722433749586 9.4278713501989824 2.3974935878068271 9.1849546153098327 1.102545553818344 0.85292328614741553 2.0533308796584588 3.2793597178533673 6.6735627101734281 258.95788261666894 6.1553636267781249 8.2707200422883016 4.7187286168336859 11.904494293034075 4.4167579859495154 7.3245382234454182 5.4658802300691596 5.3278312459588033 6.2604648098349562 28.95500310510397 5.0771724171936512 13.096167556941507 22.776408895850182 2.0109498240053645 6.7351392656564704 67.376297492533922 19.478903094306588 1.30681908130646 8.3646432599052805 10.834623132832347
leaf_count=90 58454 581 24 307 23 25 23 49 141 1783 53 45 33 82 27 40 32 32 29 176 34 82 177 14 51 829 299 13 128 324
internal_value=0.0154339 -0.0798773 -0.0824779 -0.0183928 -0.0648637 -0.2932 -0.0338645 -0.125862 0.0259802 -0.0856181 -0.0636267 -0.0705198 -0.0969191 -0.0833609 -0.10848 -0.0747692 -0.147775 -0.186169 -0.0370319 -0.00557349 -0.243445 -0.0256595 -0.0924433 -0.071015 -0.083554 -0.0793809 -0.0867851 -0.0443933 -0.0991522 -0.0723597
internal_weight=1179.36 556.287 546.859 25.5442 16.3592 1.95547 14.4037 5.67685 8.72689 521.315 123.473 117.318 65.6023 60.8836 48.9791 34.1573 13.7366 14.8218 51.7158 35.2155 10.405 20.4207 397.842 138.884 116.107 114.096 107.361 39.985 20.5061 19.1993
internal_count=64000 5546 4965 592 285 48 237 73 164 4373 755 702 407 374 292 199 77 93 295 205 66 122 3618 1835 1658 1644 1593 764 465 452
=======
split_feature=18 17 14 78 89 94 90 16 39 16 62 73 77 47 82 78 5 33 78 56 13 3 46 22 81 78 0 72 35 79
split_gain=9589.79 150.561 62.9571 41.0607 29.8749 26.4766 25.7668 22.8388 22.833 21.6574 18.0755 18.911 17.6516 32.0015 17.5638 28.119 23.5346 24.724 20.1695 17.9067 17.0334 25.6409 31.308 26.1052 34.3519 25.9237 16.3829 23.7079 15.9961 15.5617
threshold=0.20625100284814837 0.19811149686574939 0.16606950014829638 0.16350850462913516 0.19253500550985339 0.18833049386739734 0.074599999934434905 0.16997049748897555 0.14731050282716754 0.20779250562191012 0.10662399977445604 0.10161200165748598 0.12443599849939348 0.18404950201511386 0.10627549886703493 0.20542300492525103 0.18082600086927417 0.10596249997615816 0.17789000272750857 0.15123949944972995 0.091336499899625792 0.16315700113773349 0.11919450014829637 0.12565600126981738 0.11927599832415582 0.14953599870204928 0.13999900221824649 0.11177000030875207 0.16203650087118152 0.18505349755287173
decision_type=2 2 2 2 2 2 2 2 2 2 2 2 2 2 2 2 2 2 2 2 2 2 2 2 2 2 2 2 2 2
left_child=1 2 5 6 7 9 -2 14 -3 20 11 -5 13 -6 15 16 17 18 -4 -18 21 29 -23 25 -25 -24 -19 -28 -10 -1
right_child=3 8 4 10 12 -7 -8 -9 28 -11 -12 -13 -14 -15 -16 -17 19 26 -20 -21 -22 22 23 24 -26 -27 27 -29 -30 -31
leaf_value=-0.089385378461344311 -0.48121209763991629 -0.11305279714027511 -0.14607156726876239 -0.49476237115201216 -0.0004174374844139986 0.045517857457490415 -0.0049949938678791822 0.023613101300128395 0.0043487440747814769 0.088370099303397204 0.10088789397614389 0.0053956746069927057 0.058764933616680663 -0.61452058047506697 -0.046268186594994258 -0.61050195027196996 -0.78982320311879906 0.021871735848906598 -0.54293468845073434 -0.17954635808153482 -0.078072891876276196 0.066181704215650117 -0.42427444593166491 -0.86244794516972156 -0.25068603616774238 0.1085772685898973 0.10909175771473467 -0.48081207096611051 0.091229458290894322 -0.003220423577436233
leaf_weight=3148.8213092759252 1.193086764775219 8.5773717416450364 4.2657772712409594 0.83290116395801206 3.656289290636777 15.752146915532647 23.824008225463331 29.266953785903752 34.480538533069193 7.253317490220069 5980.1443057032302 8.1836516186594945 48.861887574195862 1.1050308123230932 49.266566162928939 1.2564716804772604 0.8861860241740932 12.539422812871633 1.8299654070287941 1.051026092842221 2344.3034488772973 2.3458882346749288 1.8705011308193209 1.7495619393885138 1.930890070274472 1.7836748361587522 1.1373776625841849 1.6989620644599197 54.986599810421467 21.10065193939954
leaf_count=19692 36 225 61 25 67 826 1091 953 1819 423 582913 420 2355 20 1063 32 20 209 23 28 23299 36 25 27 28 30 20 32 3899 303
internal_value=0.011657 -0.0800659 -0.082178 0.100141 -0.0196945 -0.0839445 -0.0277062 -0.0511568 0.0428035 -0.0843132 0.100675 -0.0408063 0.040855 -0.142942 -0.0807555 -0.149641 -0.124904 -0.0947863 -0.265211 -0.45872 -0.0845399 -0.0893081 -0.251809 -0.353514 -0.541497 -0.164179 -0.027221 -0.24426 0.0577457 -0.0888118
internal_weight=11816 5801.78 5703.73 6014.18 156.822 5546.91 25.0171 103.199 98.0445 5531.16 5989.16 9.01655 53.6232 4.76132 73.9318 24.6652 23.4087 21.4715 6.09574 1.93721 5523.91 3179.6 9.68052 7.33463 3.68045 3.65418 15.3758 2.83634 89.4671 3169.92
internal_count=640000 55515 49572 584485 4883 44689 1127 2441 5943 43863 583358 445 2442 87 1488 425 393 345 84 48 43440 20141 146 110 55 55 261 52 5718 19995
>>>>>>> 5dd2c62abcc99357697d23886080f074089f813f
is_linear=0
shrinkage=0.1


Tree=7
num_leaves=31
num_cat=0
<<<<<<< HEAD
split_feature=88 1 9 62 23 35 52 67 34 17 32 94 35 90 34 4 50 93 81 17 28 70 23 71 14 87 55 44 25 87
split_gain=818.82 16.4639 15.4964 14.9085 11.0964 9.7014 10.3919 13.2447 11.8699 11.5607 13.1135 11.0656 15.8788 13.4623 13.2951 12.0385 12.5558 10.8466 10.014 13.1792 11.2463 9.71233 10.051 9.44444 10.5559 9.34516 12.5413 10.6507 12.8666 11.7427
threshold=0.19920600205659869 0.093793999403715148 0.22171450406312945 0.13146550208330157 0.084423501044511809 0.084488000720739379 0.10135100036859514 0.063177999109029784 0.12277749925851823 0.089962501078844084 0.061555998399853713 0.094612501561641707 0.077692996710538878 0.080568499863147749 0.046726999804377563 0.10533550009131433 0.085568498820066466 0.12107000127434732 0.041180500760674484 0.12374350056052209 0.038205498829483993 0.029545000754296783 0.031335499137640006 0.082475997507572188 0.057648001238703735 0.11066399887204172 0.12222000211477281 0.16179999709129336 0.10943899676203729 0.14506699889898303
decision_type=2 2 2 2 2 2 2 2 2 2 2 2 2 2 2 2 2 2 2 2 2 2 2 2 2 2 2 2 2 2
left_child=2 3 5 -2 -3 6 8 -8 11 10 -9 12 18 14 -14 -13 -17 -11 20 23 -1 -22 -23 24 -20 -7 27 28 29 -27
right_child=1 4 -4 -5 -6 25 7 9 -10 17 -12 15 13 -15 -16 16 -18 -19 19 -21 21 22 -24 -25 -26 26 -28 -29 -30 -31
leaf_value=-0.0077652434871886599 0.10358589135407031 -1.0133872931642924 0.10254873982131794 -0.56512047393090004 0.10067404659171829 -0.041953779981917155 -0.23604346813833046 -0.0057906299071200616 0.017588468349321991 -0.017353669384855181 -0.22655434095145097 -0.14999318267833614 0.040610202133093749 -0.27722203321499045 -0.18419838382322778 0.050839074523777311 -0.15752139676658436 -0.19163994788235858 -0.00025209142882728404 -0.22346310000562608 -0.01966841914142059 -0.029776520376914944 -0.19707855606037028 0.026060665361872778 -0.085337252824216309 -0.10302834958474597 -0.048393710967482323 0.033376903857560612 -0.15162814031299396 0.026610929345026103
leaf_weight=10.028861500322817 0.62936167418956646 0.089419674128292992 5.1820267336443058 0.70896447915583849 568.21955051459372 154.45248282887042 9.2695914618670923 3.5914801992475978 12.607588928192852 16.605986796319488 10.727966919541357 38.499717101454735 4.4599820524454135 6.1387193948030463 6.4137328490614891 7.0161983929574472 4.9202669188380241 4.5489997342228881 25.127300478518009 3.6301015578210345 6.1016861423850086 4.5308421254158047 17.309969082474709 22.752815749496222 34.740345265716314 27.549328692257404 81.782065212726593 5.3158249752596012 40.80820107832551 9.3613168206065875
leaf_count=50 23 2 356 22 58661 1105 56 23 96 122 68 234 25 33 40 53 38 40 132 24 34 22 95 134 193 205 1530 83 406 95
internal_value=0.0147554 0.0996738 -0.0695965 -0.250654 0.100499 -0.0711662 -0.0859604 -0.129609 -0.0763998 -0.101798 -0.171184 -0.0825821 -0.0682236 -0.158829 -0.0919905 -0.12279 -0.0350481 -0.0548308 -0.055815 -0.0369762 -0.0986065 -0.13121 -0.162372 -0.0287825 -0.0496258 -0.0596271 -0.0761891 -0.103565 -0.112932 -0.0701491
internal_weight=1143.12 569.647 573.473 1.33833 568.309 568.291 249.022 44.744 204.278 35.4744 14.3194 191.671 141.234 17.0124 10.8737 50.4362 11.9365 21.155 124.222 86.2506 37.9714 27.9425 21.8408 82.6205 59.8676 319.269 164.817 83.0347 77.7188 36.9106
internal_count=64000 58708 5292 45 58663 4936 1512 309 1203 253 91 1107 782 98 65 325 91 162 684 483 201 151 117 459 325 3424 2319 789 706 300
=======
split_feature=29 99 15 17 16 69 31 9 12 91 37 57 71 60 25 45 68 27 34 66 32 16 33 54 77 13 47 55 86 79
split_gain=8168.25 118.238 59.6822 38.2883 31.8233 28.2197 26.9484 20.9817 20.8665 19.9338 18.5287 18.2567 29.2426 43.1631 20.1914 18.1912 18.0381 22.0554 18.5275 17.6589 15.4166 23.9489 15.4142 15.1761 14.533 13.2161 21.7169 27.8745 32.1867 43.8146
threshold=0.21504150331020358 0.21522299945354464 0.18053450435400012 0.17763900011777881 0.20119599997997287 0.17023300379514697 0.097926497459411635 0.19193699955940249 0.16828100383281711 0.083456002175807967 0.12355099990963937 0.15789449959993365 0.11068600043654443 0.093098998069763197 0.18640650063753131 0.097496997565031066 0.1783614978194237 0.17734599858522418 0.14960899949073794 0.13202949613332751 0.097174499183893218 0.14495600014925006 0.095455501228570952 0.14396149665117267 0.13096100091934207 0.15230499953031543 0.20398350059986117 0.14518149942159655 0.16335350275039676 0.15529849380254748
decision_type=2 2 2 2 2 2 2 2 2 2 2 2 2 2 2 2 2 2 2 2 2 2 2 2 2 2 2 2 2 2
left_child=1 2 4 11 8 6 16 22 25 23 -8 12 13 -2 -15 -7 17 18 -4 -18 21 -5 -3 -10 -6 26 -1 28 29 -28
right_child=3 7 5 20 24 15 10 -9 9 -11 -12 -13 -14 14 -16 -17 19 -19 -20 -21 -22 -23 -24 -25 -26 -27 27 -29 -30 -31
leaf_value=-0.073049883358472775 -0.79190461845807014 -0.3492613832042275 -0.05068320571925327 -0.68950008248293049 -0.31907647221300856 -0.34814419167630495 -0.21911488488574721 0.085166611966461955 -0.55592834396797208 0.03148344320490936 0.025972392397861862 0.050500255427413168 0.025495998305399399 0.0057089362413574153 -0.57931915723749494 0.063170899441935949 -0.4673845926738005 -0.69817355216120025 -0.49562753037890961 0.10454764301934732 0.10085862734322595 0.10248706280075753 -0.00093655463927619701 -0.00098268031178248469 0.084283401435753913 -0.047574745216679738 -1.2119280254652547 -0.081667167008678099 -0.085306469479173863 -0.35815854752301296
leaf_weight=5626.3153053354472 1.2253785012289871 1.3191895633935917 2.5198141746222955 0.63025196734815725 0.94385324418545025 1.0970566384494294 3.6074841218069222 53.552669400349259 1.0545857185497904 28.670586029067636 21.282704511657357 40.187670672312379 8.990213097073136 3.0238166199997072 0.73294674325734366 54.103741356171668 0.69819403439760241 1.2423154171556232 1.4887717906385658 2.3804244454950094 5400.0421468950808 0.96859097573906183 34.372782404534519 0.92504010908305634 16.658925231546164 206.31341514363885 0.83247068151831483 7.481837204657495 2.1065589571371675 2.1625873129814863
leaf_count=40070 33 33 49 25 31 18 55 4060 22 1105 665 2378 386 108 33 2686 19 26 27 76 581334 48 1572 22 1000 3700 15 264 70 70
internal_value=0.0111278 -0.0686721 -0.0703766 0.0999279 -0.0716001 0.0111712 -0.0616528 0.0455822 -0.0720023 0.0102924 -0.00954957 0.0162661 -0.0821992 -0.276534 -0.10843 0.0549965 -0.217347 -0.330027 -0.215934 -0.0251598 0.100767 -0.209708 -0.0138108 -0.296613 0.0626554 -0.0724338 -0.0733434 -0.204568 -0.384809 -0.595462
internal_weight=11526.9 6071.13 5981.89 5455.8 5893.47 88.4205 33.2197 89.2446 5875.86 30.6502 24.8902 54.16 13.9724 4.98214 3.75676 55.2008 8.32952 5.2509 4.00859 3.07862 5401.64 1.59884 35.692 1.97963 17.6028 5845.21 5638.9 12.5835 5.10162 2.99506
internal_count=640000 55655 49990 584345 46369 3621 917 5665 45338 1149 720 2938 560 174 141 2704 197 102 76 95 581407 73 1605 44 1031 44189 40489 419 155 85
>>>>>>> 5dd2c62abcc99357697d23886080f074089f813f
is_linear=0
shrinkage=0.1


Tree=8
num_leaves=31
num_cat=0
<<<<<<< HEAD
split_feature=98 52 5 50 74 41 36 91 12 98 24 73 21 80 31 50 90 86 48 11 65 18 91 48 82 45 0 73 2 33
split_gain=706.854 16.5323 9.91455 7.37102 11.246 11.5658 15.1079 10.4958 11.2898 8.54243 7.58047 8.62548 8.25935 9.18946 10.507 9.78851 9.77384 11.4933 10.1693 12.8657 11.541 10.139 9.8375 10.2201 9.58912 12.8244 10.8872 9.88539 9.50421 8.40575
threshold=0.20692600309848788 0.16919250041246417 0.19255949556827548 0.027018499560654167 0.032808501273393638 0.029408999718725685 0.048614500090479858 0.077073499560356154 0.075162500143051161 0.053913500159978874 0.033677499741315849 0.096638999879360213 0.051347000524401672 0.06813449785113336 0.13329250365495685 0.13258299976587298 0.13264600187540057 0.13860199600458148 0.11409600079059602 0.12312049791216852 0.089151002466678633 0.085210498422384276 0.049954500049352653 0.076032001525163664 0.11634700000286104 0.083380501717329039 0.056092500686645515 0.062354000285267837 0.081411499530076994 0.10022300109267236
decision_type=2 2 2 2 2 2 2 2 2 2 2 2 2 2 2 2 2 2 2 2 2 2 2 2 2 2 2 2 2 2
left_child=1 2 3 4 -1 -6 9 -8 -9 -7 11 -5 29 14 15 16 17 18 20 24 21 -14 -23 -24 25 27 -27 -20 -25 -12
right_child=-2 -3 -4 10 5 6 7 8 -10 -11 12 -13 13 -15 -16 -17 -18 -19 19 -21 -22 22 23 28 -26 26 -28 -29 -30 -31
leaf_value=-0.1888827190037351 0.10017221017949632 0.089573099758441743 0.082477896646230897 -0.035268285605072086 0.040976080808945076 -0.11838339739920518 -0.21639721265943956 -0.18614029465358276 0.04826118703950829 0.074389635080712543 -0.074464749264244331 0.10529111520208852 -0.014752062190152094 -0.067296273881423174 0.086073720634123732 -0.20407374945219511 -0.191930142655239 0.064895811533535089 -0.18783951889534933 0.10367390477236749 0.029020049277415295 0.0060308845704320803 -0.24123539088180279 0.029344865203564198 0.031358580698298444 -0.38113631126905628 -0.15796582339942242 0.028464094732155151 -0.17813286687577246 -0.14791565739868093
leaf_weight=11.10039099305868 512.711685301736 7.3046738198027006 4.724874196574091 34.7452537342906 7.0630338713526717 3.7410286664962786 11.082509070634844 4.0519726946949941 4.1688468605279922 5.9624635130167007 79.337991934269667 4.9932015389204016 31.043667741119862 266.20653170626611 6.7921185493469229 3.6025904882699242 3.9320236779749385 11.162143204361199 3.404885210096845 2.9368679672479621 27.344215296208858 5.8401051461696651 6.5358993336558333 4.3362668901681882 3.6677306517958632 2.8817239403724662 9.0539653748273832 5.567880891263485 4.4981684684753418 19.387966450303793
leaf_count=57 58456 461 283 181 36 19 60 22 25 33 452 29 173 2828 78 37 33 100 22 28 184 30 39 26 31 20 69 37 27 124
internal_value=0.0140686 -0.0599439 -0.0617977 -0.0629641 -0.100866 -0.0737785 -0.101721 -0.152889 -0.0672733 6.90269e-05 -0.0596365 -0.0176068 -0.0629935 -0.0565829 -0.0350748 -0.0416154 -0.0368262 -0.0316697 -0.0417329 -0.0941423 -0.0236176 -0.0511625 -0.104453 -0.146432 -0.117781 -0.143943 -0.211848 -0.0536164 -0.0762951 -0.0888892
internal_weight=1109.18 596.471 589.166 584.441 47.1702 36.0699 29.0068 19.3033 8.22082 9.70349 537.271 39.7385 497.533 398.807 132.6 125.808 122.206 118.274 107.111 27.5131 79.5983 52.2541 21.2104 15.3703 24.5762 20.9085 11.9357 8.97277 8.83444 98.726
internal_count=64000 5544 5083 4800 252 195 159 107 47 52 4548 210 4338 3762 934 856 819 786 686 207 479 295 122 92 179 148 89 59 53 576
=======
split_feature=19 18 8 13 11 12 58 49 94 78 20 95 71 72 70 60 89 10 40 61 77 31 96 13 42 10 72 38 56 64
split_gain=7022.89 117.272 54.7888 26.1746 24.3759 19.5373 22.1868 18.0903 17.033 16.5857 16.3483 19.1774 29.6182 27.2135 16.0923 15.9282 16.5533 15.4034 15.395 18.8283 25.7854 23.6676 18.5902 17.7553 17.0698 16.5953 19.1492 24.273 19.1386 16.4127
threshold=0.22238150238990786 0.21324349939823153 0.19845149666070941 0.17828200012445453 0.10167150199413301 0.10694250091910364 0.16314250230789187 0.08595649898052217 0.088179998099803938 0.14953599870204928 0.093453001230955138 0.17478100210428241 0.097249999642372145 0.12120699882507326 0.14358049631118777 0.093098998069763197 0.1695865020155907 0.11708550155162813 0.073926001787185683 0.11958599835634233 0.1642125025391579 0.11915700137615205 0.071230500936508193 0.063838001340627684 0.061224499717354781 0.07436349987983705 0.075392998754978194 0.09949249774217607 0.11944400146603586 0.12699449807405475
decision_type=2 2 2 2 2 2 2 2 2 2 2 2 2 2 2 2 2 2 2 2 2 2 2 2 2 2 2 2 2 2
left_child=1 2 3 5 14 10 -7 -8 -6 15 11 -1 13 -13 -4 16 -3 -14 19 23 22 -22 -21 -12 29 -24 -27 28 -28 -25
right_child=-2 9 4 -5 8 6 7 -9 -10 -11 18 12 17 -15 -16 -17 -18 -19 -20 20 21 -23 25 24 -26 26 27 -29 -30 -31
leaf_value=-0.061204565862147731 0.1005202840993845 -0.71622773296064635 -0.11706037317596137 0.037059440032068257 -0.46147284930861265 -0.058094974738572031 -0.32599242840011161 -0.025536079303071637 0.03394970898038685 0.082128656047446791 -0.10796597579805969 -0.71293066933653393 0.030647687577628653 -0.18595827049684688 0.070691051292458562 -0.00096670130200448136 -0.036927343465271927 -0.2449226388956745 -0.065530463310153095 -0.2951555436556868 -0.54517037800093571 -0.12648683209165976 -0.006090774855571723 -0.092203528707351393 -0.051034781164617397 -0.0030478145687396745 -0.19484021615875127 -0.13017514131876526 -0.57695864290020338 -0.27884917359519096
leaf_weight=3307.4153300402686 4901.4702675333247 0.72667170781642088 21.449618829414252 26.781527240760624 0.69915181398391624 1277.005498980172 2.0178068950772277 291.42905127909034 93.616136169061065 66.431457076221704 164.63184215128422 1.6999219246208657 5.0844493769109231 2.3138227611780167 5.7994078705087295 4.7756407763808966 0.70845569856464863 3.3746814001351595 711.50073066633195 5.4532451182603827 2.8915285551920524 2.5328081455081701 13.391542125493286 93.003871574997902 208.07976961880922 7.960926014930009 2.8312700688838985 19.714978825300932 2.440617099404335 4.9627438932657233
leaf_count=18882 581946 17 561 1227 9 11405 16 5710 4292 5531 913 23 88 31 190 205 28 57 6317 37 37 36 112 535 1471 61 20 187 21 35
internal_value=0.0105938 -0.0588112 -0.0602729 -0.0615856 0.00620796 -0.0620166 -0.0523972 -0.0276021 0.0302772 0.0675184 -0.06533 -0.0616713 -0.185435 -0.409144 -0.0771013 -0.0887556 -0.380889 -0.0792882 -0.0751304 -0.0880694 -0.142236 -0.349673 -0.120511 -0.0814847 -0.0672396 -0.0999585 -0.138111 -0.181142 -0.371742 -0.101659
internal_weight=11252.2 6350.72 6278.08 6156.52 121.564 6129.74 1570.45 293.447 94.3153 72.6422 4559.28 3319.89 12.4729 4.01374 27.249 6.21077 1.43513 8.45913 1239.4 527.895 57.2169 5.42434 51.7926 470.678 306.046 46.3393 32.9478 24.9869 5.27189 97.9666
internal_count=640000 58054 52273 47221 5052 45994 17131 5726 4301 5781 28863 19081 199 54 751 250 45 145 9782 3465 511 73 438 2954 2041 401 289 228 41 570
>>>>>>> 5dd2c62abcc99357697d23886080f074089f813f
is_linear=0
shrinkage=0.1


Tree=9
num_leaves=31
num_cat=0
<<<<<<< HEAD
split_feature=89 28 29 33 31 86 9 45 35 87 65 77 66 51 85 81 67 64 94 2 47 59 25 82 29 76 68 29 46 59
split_gain=615.23 15.2342 8.86692 8.8925 7.9424 12.032 16.4478 15.0586 5.95359 8.3491 9.11815 9.56454 14.0899 12.0239 14.7499 11.3798 11.1061 10.3821 8.98375 11.5662 9.23336 14.2778 9.01613 13.1673 11.5752 10.3546 10.0934 8.5476 8.81354 10.2466
threshold=0.22200649976730349 0.18502299487590793 0.17661850154399875 0.10533449798822404 0.11991000175476076 0.16346050053834918 0.15421350300312045 0.1451624929904938 0.084488000720739379 0.11781650036573411 0.16197250038385394 0.10302849858999254 0.10033999755978586 0.10666299983859064 0.1254450008273125 0.072784498333930983 0.13039650022983554 0.073635999113321318 0.06762199848890306 0.11191250011324884 0.17014650255441668 0.16896750032901767 0.10340500250458719 0.075811501592397704 0.065921001136302962 0.079925499856472029 0.09104300290346147 0.086033497005701079 0.12539149820804599 0.16181899607181552
decision_type=2 2 2 2 2 2 2 2 2 2 2 2 2 2 2 2 2 2 2 2 2 2 2 2 2 2 2 2 2 2
left_child=1 8 4 -4 -3 6 -6 -8 -1 18 11 13 15 14 17 -13 -17 -11 19 22 -20 -22 23 26 -25 -26 -10 -14 29 -29
right_child=-2 2 3 -5 5 -7 7 -9 9 10 -12 12 27 -15 -16 16 -18 -19 20 -21 21 -23 -24 24 25 -27 -28 28 -30 -31
leaf_value=-0.066764996498049109 0.10061852120525859 0.039987164263492664 -0.12441804413530616 0.097969428590110541 0.11492763851313295 0.04085546749276496 -0.51706514306468365 -0.061527721326821855 -0.061634244119510365 -0.14156939074896854 0.0025487882127382569 -0.058856729755730655 -0.25221752254246155 0.066605229295893381 -0.2030132555296171 -0.15201258550224428 -0.3418406952348586 0.019577564700511862 -0.011450464504394742 -0.194520604469339 0.0027326958250362106 -0.34520384317040403 0.034414841709759697 -0.25289434002690464 0.048571582893294371 -0.15400202617986816 0.084368828899175977 0.027840571872461969 -0.091889750563334927 -0.10770741446561655
leaf_weight=263.29857868328691 461.7757478505373 6.2901958860456961 2.0677430871874085 13.786104907281695 1.0607466362416742 2.9165522009134293 1.8872766522690656 1.1789976609870789 18.381612662225965 5.4941628687083783 17.6897974871099 6.8189339749515083 2.478667050600051 9.4074942413717491 5.989655088633298 9.0069052595645172 4.6853432524949303 14.681345473974941 118.1646798606962 6.1399290263652793 2.6283740177750579 2.1393809411674738 10.291100591421126 5.8131068572402027 4.0469245873391611 6.7021289579570293 6.3777689114212981 16.97404921613634 40.653609384782612 8.3058204092085344
leaf_count=1510 58204 143 37 890 17 87 25 39 99 33 455 48 17 84 50 71 39 107 854 37 30 24 68 31 27 37 41 171 631 94
internal_value=0.0133752 -0.0520939 0.0184174 0.0689645 -0.0416831 -0.114618 -0.22449 -0.341909 -0.0556049 -0.0465039 -0.0646314 -0.0741772 -0.0917081 -0.030354 -0.0652149 -0.164405 -0.21697 -0.0243057 -0.0322389 -0.0647712 -0.0169555 -0.153393 -0.049336 -0.0701941 -0.139214 -0.0777348 -0.0240253 -0.0699122 -0.0630587 -0.0166944
internal_weight=1077.13 615.357 29.1876 15.8538 13.3338 7.04357 4.12702 3.06627 586.169 322.871 142.186 124.496 88.9233 35.5727 26.1652 20.5112 13.6922 20.1755 180.685 57.7526 122.932 4.76775 51.6126 41.3215 16.5622 10.7491 24.7594 68.4121 65.9335 25.2799
internal_count=64000 5796 1238 927 311 168 81 64 4558 3048 1800 1345 1071 274 190 158 110 140 1248 340 908 54 303 235 95 64 140 913 896 265
=======
split_feature=19 7 18 16 14 69 92 28 87 74 67 64 62 21 37 45 19 27 24 89 94 30 98 52 76 25 16 16 28 49
split_gain=6080.79 93.582 38.8092 25.0382 23.8622 16.8857 15.484 15.2358 24.1051 15.066 18.3223 14.8881 19.092 16.6038 14.5294 14.6807 25.8104 25.7383 14.965 14.0711 17.9883 13.4131 25.8933 31.333 31.7228 12.6796 14.5823 11.7963 16.2202 19.2269
threshold=0.22238150238990786 0.19747450202703479 0.21324349939823153 0.15724150091409686 0.14927700161933902 0.20066049695014956 0.097392000257968916 0.17726749926805499 0.15712850540876391 0.11035200208425523 0.15720050036907199 0.10519450157880784 0.13471549749374392 0.071869499981403365 0.16387499868869784 0.18583650141954425 0.1705649942159653 0.16422349959611895 0.12686949968338015 0.19253500550985339 0.14451299607753756 0.09709350019693376 0.19171649962663653 0.13070449978113177 0.13779649883508685 0.16292100399732592 0.15724150091409686 0.13188600540161136 0.19178300350904467 0.18440499901771548
decision_type=2 2 2 2 2 2 2 2 2 2 2 2 2 2 2 2 2 2 2 2 2 2 2 2 2 2 2 2 2 2
left_child=1 2 4 11 27 -6 7 -4 -9 10 -2 12 -3 -13 15 18 17 -17 19 25 -21 22 -15 24 -24 -7 -27 28 -1 -30
right_child=9 3 6 -5 5 14 -8 8 -10 -11 -12 13 -14 21 -16 16 -18 -19 -20 20 -22 -23 23 -25 -26 26 -28 -29 29 -31
leaf_value=-0.056473601620515984 -0.56228249729786783 -0.034332833383484938 0.10445313595433309 0.071014370369462718 -0.038047725760716848 0.061608452497027039 0.069348561358115679 -0.75933729329413813 -0.0019522689060279123 0.10053397490096438 0.040545270226537075 -0.52246170319402663 -0.60917562659122348 0.018298594637540241 0.068123442945391424 -0.13436196621109675 0.0097011247375349396 -0.94361554825158711 0.061103645612083729 -0.021630482781958518 -0.67953254637413985 0.033702136520088945 -1.1430179269071352 -0.023236366835516307 -0.24355486804696477 0.0095540836029617982 -0.53682492684535155 -0.044592936359161978 -0.077388135958430249 -0.26441688453227796
leaf_weight=5031.5326413353905 0.74747829418629352 1.4080066625028842 1.1652868241071694 77.060986397322267 363.7244548657909 3.9016796378418865 33.471391169819981 0.80898458510637261 0.87443628441542387 4437.7212674692273 1.5490650674328206 0.62627364881336589 0.9798386814072727 5.6936084539629501 30.102020782418549 0.81180034670978718 2.0964143266901374 0.76185321714729071 13.19891394022852 0.78102030511945464 0.88823265675455332 25.659633957315236 0.72021744772791885 1.5759875574149189 0.86069416347891092 1.0273966155946253 0.9312054757028817 924.84499854035676 17.371127103455368 8.0408993773162347
leaf_count=29569 25 32 43 5768 5655 69 2527 25 32 581866 55 8 25 175 1390 21 89 19 381 20 22 1166 15 69 32 24 20 10453 256 149
internal_value=0.0100529 -0.0511827 -0.0527775 0.038395 -0.0533624 -0.0302697 0.0503003 -0.173511 -0.365921 0.100401 -0.155663 -0.0285932 -0.270216 -0.0121726 0.0216391 -0.0357116 -0.22006 -0.526146 -0.00307197 -0.115569 -0.371709 -0.00291214 -0.109065 -0.338772 -0.653324 -0.0426092 -0.250219 -0.054977 -0.0568761 -0.136568
internal_weight=10990.9 6550.92 6436.33 114.585 6400.01 418.225 36.3201 2.84871 1.68342 4440.02 2.29654 37.5243 2.38785 35.1364 54.5005 24.3985 3.67007 1.57365 20.7284 7.52953 1.66925 34.5101 8.85051 3.1569 1.58091 5.86028 1.9586 5981.79 5056.94 25.412
internal_count=640000 58054 50764 7290 48137 7710 2627 100 57 581946 80 1522 57 1465 2055 665 129 40 536 155 42 1457 291 116 47 113 44 40427 29974 405
>>>>>>> 5dd2c62abcc99357697d23886080f074089f813f
is_linear=0
shrinkage=0.1


Tree=10
num_leaves=31
num_cat=0
<<<<<<< HEAD
split_feature=78 56 57 20 44 46 28 7 5 13 69 72 82 54 48 50 66 50 77 66 38 3 31 38 57 33 43 26 3 37
split_gain=537.027 12.9119 8.06206 7.5422 7.51865 8.93192 9.09235 8.75931 8.22003 12.8876 10.9289 11.8991 9.04791 8.09966 7.30828 8.21699 13.0721 8.40866 8.89032 7.63021 11.9135 10.4026 10.1494 8.05527 10.0114 10.3732 14.5581 8.94333 7.80936 9.11121
threshold=0.21376600116491321 0.2014420032501221 0.11642799898982049 0.079020000994205489 0.047375999391078956 0.094208501279354109 0.099619999527931227 0.063933499157428755 0.1089099980890751 0.12764199823141101 0.1184155009686947 0.085948497056961073 0.10194950178265573 0.093251500278711333 0.066184997558593764 0.027018499560654167 0.093876000493764891 0.039606001228094108 0.072335500270128264 0.10661849752068521 0.099280498921871199 0.063466999679803862 0.07237700000405313 0.06578999757766725 0.035706501454114921 0.032061999663710601 0.070592500269413008 0.060990000143647201 0.095808502286672606 0.035421000793576247
decision_type=2 2 2 2 2 2 2 2 2 2 2 2 2 2 2 2 2 2 2 2 2 2 2 2 2 2 2 2 2 2
left_child=1 2 14 -2 -4 8 -7 -8 10 13 11 -6 -12 -10 15 16 -1 18 -17 20 23 -21 -23 28 -25 -26 27 -27 29 -19
right_child=3 -3 4 -5 5 6 7 -9 9 -11 12 -13 -14 -15 -16 17 -18 19 -20 21 -22 22 -24 24 25 26 -28 -29 -30 -31
leaf_value=-0.12413879132118644 -0.29765802500998112 0.1020502327822944 0.079497771736659631 0.10076311155036444 -0.14753066298379608 0.03747345549736493 -0.21028701480059875 -0.02896274393505522 -0.041373382766363265 -0.17949970678269031 -0.24320227062720595 0.030275658962979179 -0.054407826607100002 0.13150259927959243 -0.063797993880259626 0.11708173040429831 0.062967714760782625 -0.084732014986371437 -0.032779241142010203 -0.23401259669114186 0.056858349749717763 -0.15668957448767246 0.061376386864864886 0.055776753294854875 -0.24761992273331768 0.10141342488800874 -0.18621517727202136 -0.076830958821124201 -0.11082031146314449 0.044527585951380122
leaf_weight=19.428126603364948 0.47567033022642036 5.8495121011510482 6.0164553523063651 419.03581403614953 7.0310706160962608 21.480768239125609 2.7212104499340048 127.04580885265023 5.7972072474658471 3.5700708627700797 7.7729276958852989 8.0993800479918701 3.7694831602275372 5.0895019546151161 292.58931939676404 8.0904604867100698 4.6223161071538916 7.3121683523058918 7.7511499673128119 4.2762968838214865 14.939529456198214 4.0935982689261419 4.4594387672841549 4.4225179255008724 4.3514628335833576 4.58834455907345 7.4582645073533049 7.2830415777862072 6.3554557114839545 21.449695944786072
leaf_count=95 8 509 35 58196 44 176 13 2250 39 27 48 58 30 46 1834 43 23 36 40 25 84 23 26 23 21 26 40 37 32 113
internal_value=0.0127148 -0.0458273 -0.0472183 0.100311 -0.0305833 -0.034026 -0.0227896 -0.0327651 -0.0753462 -0.0146225 -0.108259 -0.0523504 -0.181546 0.0394456 -0.0550117 -0.0353697 -0.0881783 -0.0234812 0.0437562 -0.0351874 -0.0234552 -0.106664 -0.0429929 -0.0424338 -0.0823353 -0.108128 -0.0767259 -0.0079387 -0.0105015 0.0116657
internal_weight=1047.23 627.715 621.865 419.511 198.394 192.377 151.248 129.767 41.1296 14.4568 26.6729 15.1305 11.5424 10.8867 423.471 130.882 24.0504 106.831 15.8416 90.9898 78.1605 12.8293 8.55304 63.221 28.1036 23.6811 19.3297 11.8714 35.1173 28.7619
internal_count=64000 5796 5287 58204 2766 2731 2439 2263 292 112 180 102 78 85 2521 687 118 569 83 486 412 74 49 328 147 124 103 63 181 149
=======
split_feature=19 28 68 2 55 14 16 50 62 20 74 63 74 18 15 15 61 78 26 64 12 31 16 69 85 20 17 92 41 86
split_gain=5295.89 80.1853 47.4805 25.3848 22.9256 16.9905 14.0204 14.0652 23.0545 14.0356 12.68 15.9201 12.4137 11.937 11.6024 11.9023 13.2852 11.9223 16.925 17.462 11.4403 11.2326 14.491 22.2334 24.6862 22.4531 20.1278 22.287 15.3271 14.9159
threshold=0.22238150238990786 0.21296950429677966 0.22038950026035312 0.16307699680328372 0.10259099677205087 0.15491899847984317 0.1256309971213341 0.079581998288631453 0.1538060009479523 0.10181549936532976 0.11597499996423723 0.11719200015068056 0.17167600244283679 0.17755100131034854 0.10882899910211564 0.16893500089645389 0.15838300436735156 0.21293250471353534 0.13179799914360049 0.138204000890255 0.13972200453281405 0.14552399516105655 0.13848599791526797 0.17023300379514697 0.139104999601841 0.074114002287387862 0.17763900011777881 0.097392000257968916 0.078327499330043807 0.13773699849843982
decision_type=2 2 2 2 2 2 2 2 2 2 2 2 2 2 2 2 2 2 2 2 2 2 2 2 2 2 2 2 2 2
left_child=1 2 3 5 -3 -1 9 8 -8 -6 11 -2 -5 14 -7 16 17 21 -19 -20 -17 22 -16 28 26 -26 27 -25 -24 -30
right_child=10 4 -4 12 6 13 7 -9 -10 -11 -12 -13 -14 -15 15 20 -18 18 19 -21 -22 -23 23 24 25 -27 -28 -29 29 -31
leaf_value=-0.048380571701909007 -0.37226239273245709 -0.56513611461766022 0.079117993188492761 -0.014639999925025602 -0.42306847146884546 0.0034834973704547462 0.1048280415657479 0.078535575179844386 -0.48595989313602311 -0.003509804434276541 0.10048075187424291 0.046246677229334329 0.072478341504071828 0.0098698379528996353 -0.041006960655003644 -0.038954580378077842 0.066667668698896537 -0.75219809584043373 -0.44298289614636616 0.10339007278003061 0.082271489244057014 0.0054635188205648883 0.079503364554198541 -0.48552011628145442 -0.45646094217100208 -0.024208905020891059 -0.59957624459344838 -0.12158889320767818 -0.019900919709106041 -0.16999954801811476
leaf_weight=6225.3528799060732 1.2350829653441895 0.59035466425120731 30.208741770125926 67.217247984372079 1.1224561193957918 56.320536917075515 1.50333331990987 71.374940512236208 1.1782066309824584 2.752854386344552 4017.2503376258537 3.4421306410804391 21.616096051409841 77.194206230808049 51.553886713460088 22.173841701820493 7.5015837335959068 0.58232843223959152 1.0909730363637211 1.2611146531999109 11.996436500921844 18.833009756170213 5.9515284448862067 2.5051027182489651 1.4088403694331635 8.1740349894389492 1.970277603715658 5.1258641360327601 12.713332463987173 13.814663594588636
leaf_count=41334 26 9 2214 1917 25 602 51 5590 28 78 581771 149 1026 2448 586 454 194 15 31 53 339 321 65 29 20 165 35 78 154 193
internal_value=0.00952105 -0.0447788 -0.045966 -0.0465373 0.0556828 -0.0472601 0.0603857 0.0700884 -0.154751 -0.125032 0.100289 -0.0642664 0.00655878 -0.0240224 -0.0357559 -0.0490165 -0.0625885 -0.0703464 -0.269533 -0.150035 0.00360524 -0.0655575 -0.0785159 -0.115945 -0.201303 -0.0877571 -0.314632 -0.241061 -0.0655283 -0.098066
internal_weight=10745 6723.09 6644.57 6614.36 78.5221 6525.52 77.9318 74.0565 2.68154 3.87531 4021.93 4.67721 88.8333 300.172 222.977 166.657 132.487 124.985 2.93442 2.35209 34.1703 122.051 103.218 51.6636 19.1841 9.58288 9.60124 7.63097 32.4795 26.528
internal_count=640000 58054 52273 50059 5781 47116 5772 5669 79 103 581946 175 2943 5782 3334 2732 1939 1745 99 84 793 1646 1325 739 327 185 142 107 412 347
>>>>>>> 5dd2c62abcc99357697d23886080f074089f813f
is_linear=0
shrinkage=0.1


Tree=11
num_leaves=31
num_cat=0
<<<<<<< HEAD
split_feature=9 56 78 66 54 29 25 62 43 33 15 90 18 93 85 17 32 80 39 97 63 0 53 0 62 64 31 90 63 35
split_gain=472.15 10.7989 7.19815 5.39266 9.30372 10.522 9.51036 9.29457 9.22017 7.92495 7.71288 11.8903 8.65504 8.03175 8.02956 7.74859 11.8476 11.3219 19.121 10.1911 9.28775 8.88388 8.70389 8.57888 8.06463 9.16789 8.52986 7.21924 11.1262 8.25147
threshold=0.22171450406312945 0.2014420032501221 0.22115399688482287 0.10033999755978586 0.032996499910950668 0.05348049849271775 0.069189500063657774 0.043464500457048423 0.084252499043941512 0.083927001804113402 0.14494800567626956 0.1288930028676987 0.13598799705505374 0.14727599918842318 0.1432754993438721 0.10343350097537042 0.068868000060319914 0.10960550233721734 0.11675800010561944 0.072994999587535872 0.085327498614788069 0.068734999746084227 0.046888500452041633 0.09737849980592729 0.069408997893333449 0.06650200113654138 0.07237700000405313 0.10660450160503389 0.090985998511314406 0.10350700095295907
decision_type=2 2 2 2 2 2 2 2 2 2 2 2 2 2 2 2 2 2 2 2 2 2 2 2 2 2 2 2 2 2
left_child=1 2 3 10 -5 9 -7 8 -8 -6 11 13 -13 14 15 27 22 19 -19 21 -21 -18 -17 -20 26 -26 -24 -1 -29 -30
right_child=-2 -3 -4 4 5 6 7 -9 -10 -11 -12 12 -14 -15 -16 16 17 18 23 20 -22 -23 24 -25 25 -27 -28 28 29 -31
leaf_value=-0.047145193076227547 0.10053265534021703 0.10189134849640957 0.10243545503153745 0.11466109632305062 -0.068851188314603393 0.019933229691165979 -0.031850151472178907 -0.033584721719636168 -0.2428237650613061 -0.24971120906615263 0.029894221189471434 -0.087858317704450503 -0.30819697988840211 -0.19073353289633221 0.067070825016130306 -0.021038408356505275 0.0028949818376315319 0.022104548394258211 -0.13511269925695696 0.078321227715662356 -0.039570660562890228 -0.1832863994852206 0.043004518803502978 -0.37886288265347789 -0.30266424580373436 -0.14076581299503763 -0.16217465884138199 0.083257339330392394 -0.16823874948466888 0.033809450767872097
leaf_weight=225.99827968329191 378.74356106109917 5.2942108768038443 3.4544328786432734 4.2621611654758444 7.0054162070155126 33.002127714455128 3.9905974194407445 223.60544364154339 4.3074540421366692 3.7036391571164131 11.524660436436532 4.3042434193193904 3.0431610718369484 4.0351042710244647 5.8750720694661132 6.0223185420036343 4.3583771325647813 4.0932602696120721 2.8097498957067728 11.338789634406568 16.273246668279171 6.2211771458387375 3.4700506478548068 2.9703574143350124 5.4749223217368117 9.6852091401815397 4.8694385513663292 10.859661497175695 4.2259932905435544 3.8743027038872242
leaf_count=1195 58202 476 278 21 37 205 26 2697 21 21 101 31 20 34 46 33 25 26 22 71 114 34 22 22 29 54 27 64 23 23
internal_value=0.0120376 -0.0403364 -0.0415229 -0.0423107 -0.0319548 -0.0342221 -0.0302936 -0.0374414 -0.141365 -0.1314 -0.0505605 -0.0532892 -0.179119 -0.0505083 -0.0487855 -0.0508958 -0.078436 -0.0478108 -0.143265 -0.0231338 0.00884125 -0.106587 -0.128297 -0.260374 -0.155785 -0.199234 -0.0767999 -0.0421728 0.017097 -0.0716008
internal_weight=1018.7 639.953 634.659 631.204 279.877 275.615 264.906 231.903 8.29805 10.7091 351.327 339.803 7.3474 332.455 328.42 322.545 77.5869 48.065 9.87337 38.1916 27.612 10.5796 29.5219 5.78011 23.4996 15.1601 8.33949 244.958 18.96 8.1003
internal_count=64000 5798 5322 5044 3028 3007 2949 2744 47 58 2016 1915 51 1864 1830 1784 479 314 70 244 185 59 165 44 132 83 49 1305 110 46
=======
split_feature=89 9 59 17 11 12 11 7 14 21 93 51 6 93 15 3 5 10 97 42 37 91 26 93 72 54 82 45 76 30
split_gain=4637.9 65.0269 28.5623 24.6838 20.5534 18.5454 22.1102 17.8567 26.969 21.6698 14.4701 14.2475 17.6854 19.2528 23.4692 17.3312 21.5442 19.8829 17.054 14.9991 14.261 14.0534 14.4231 15.261 28.7381 17.4593 13.1908 13.1693 13.7913 12.4626
threshold=0.22227250039577487 0.21492800116539004 0.2301294952630997 0.15049249678850177 0.10167150199413301 0.12105850130319597 0.123564500361681 0.15749250352382663 0.12739349901676181 0.097784999758005156 0.12716349959373477 0.15873549878597262 0.13888949900865558 0.12716349959373477 0.12694250047206881 0.1422424986958504 0.18659799546003344 0.093245498836040511 0.13052449375391009 0.15408650040626529 0.12355099990963937 0.1370860040187836 0.11317949742078783 0.13723949342966082 0.13503199815750125 0.099190499633550658 0.086724001914262785 0.12132599949836732 0.17631399631500247 0.07442799955606462
decision_type=2 2 2 2 2 2 2 2 2 2 2 2 2 2 2 2 2 2 2 2 2 2 2 2 2 2 2 2 2 2
left_child=1 2 5 7 27 11 29 8 -2 -10 -8 21 13 14 -13 16 20 -18 -16 -15 -14 -1 23 -23 25 -25 -5 28 -3 -7
right_child=3 4 -4 26 -6 6 10 -9 9 -11 -12 12 15 19 18 -17 17 -19 -20 -21 -22 22 -24 24 -26 -27 -28 -29 -30 -31
leaf_value=-0.04388767733332441 -0.81617691553728577 -0.099751949287623431 0.074410022859721814 -0.56717442423852371 0.064948496515560034 -0.017938794168582736 -0.026060709626807444 0.037438339660483141 -0.57388590689924224 0.057509097294792283 0.017079479562428976 -0.68811301115926904 -0.3633055584053968 -0.0089742103023316647 -0.49578892191559298 0.057696748857836724 -0.95518051128151127 -0.20685622463833783 -0.03530824958069162 -0.33520068995410746 -0.022071122421467415 -0.032602571621374227 -0.000857737966508074 -0.27927411345612113 -0.41651449349205233 0.02157087264164495 0.10040197610689545 -0.024123795814110893 -0.61029557318898187 -0.046419312900399815
leaf_weight=5444.3803261220455 0.65141407726332401 1.442090950906276 21.504849086515605 0.29600844904780288 76.643570074811578 215.62135240528733 172.63339796150103 7.5508379186503589 0.72932010237127576 2.1341895591467619 141.46511244261637 1.5008663870394245 1.4602967966347948 5.0367748504504561 1.3105351701378825 8.251942325383423 0.56338022090494522 0.96020935149863362 2.0819947207346559 1.9569760230369864 7.5925816893577576 43.691570625640452 148.40235698223114 2.7536216154694539 3.1984939537942401 6.4418665422126651 3648.1106153894216 11.628533004783092 0.83572911471128453 534.51687175128609
leaf_count=32000 19 38 1749 7 6503 1709 2303 347 15 78 3523 22 19 91 16 291 10 41 42 30 180 390 2105 23 36 71 581337 520 21 6464
internal_value=0.00899396 -0.0395267 -0.0406534 0.0998955 0.0446546 -0.0410204 -0.0289059 -0.049232 -0.235419 -0.103304 -0.00663104 -0.0432904 -0.111213 -0.206711 -0.358856 -0.0509207 -0.135666 -0.483565 -0.213192 -0.100258 -0.0771148 -0.042921 -0.0171845 -0.0603852 -0.158325 -0.0685182 0.100348 -0.0671936 -0.28707 -0.0382328
internal_weight=10515.3 6855.88 6765.33 3659.47 90.5499 6743.82 1064.24 11.0658 3.51492 2.86351 314.099 5679.58 30.7156 11.8871 4.8934 18.8284 10.5765 1.52359 3.39253 6.99375 9.05288 5648.87 204.488 56.0856 12.394 9.19549 3648.41 13.9064 2.27782 750.138
internal_count=640000 58197 51115 581803 7082 49366 13999 459 112 93 5826 35367 742 201 80 541 250 51 58 121 199 34625 2625 520 130 94 581344 579 59 8173
>>>>>>> 5dd2c62abcc99357697d23886080f074089f813f
is_linear=0
shrinkage=0.1


Tree=12
num_leaves=31
num_cat=0
<<<<<<< HEAD
split_feature=89 97 61 40 42 91 3 19 30 6 22 40 51 80 70 44 38 40 18 65 5 43 45 40 21 45 58 74 55 2
